人 -0.185824 0.0177423 -0.0331029 -0.0989533 -0.149864 -0.0605674 -0.161828 -0.254521 -0.0115329 0.193318 -0.0173864 0.441869 -0.00175117 -0.0731552 -0.273227 -0.138988 -0.0942862 0.0699592 -0.150301 0.0626972 0.0123803 -0.0597613 0.185741 -0.21318 0.132655 0.154868 -0.177441 -0.100211 0.0610125 -0.193362 -0.244958 0.272885 0.0462685 -0.301875 0.147252 -0.122768 -0.0602104 -0.533142 -0.214338 -0.0681666 0.18226 -0.299009 -0.445475 0.0986779 0.167573 0.258117 -0.0681937 0.124731 -0.115017 0.135617 -0.190154 -0.289197 0.231722 0.113123 0.393324 0.27414 0.0344705 -0.19294 0.160909 -0.155038 -0.349203 -0.199796 -0.130002 0.0266416 -0.238608 -0.241562 -0.224201 -0.00829412 -0.339855 0.0905168 -0.100267 -0.071075 -0.127619 0.0532209 -0.151894 0.135367 0.049513 0.229721 -0.0584122 -0.027366 0.118631 0.188629 0.36722 0.184232 0.0857515 0.0446576 -0.312346 -0.0872769 0.103804 0.172675 -0.0851398 0.148627 -0.181956 -0.436449 0.0285885 0.00304773 -0.0821559 0.0164124 0.261391 -0.2792 0.0716741 0.048215 0.187383 0.0977556 -0.000129552 0.0133171 -0.0165454 0.00548912 -0.100385 0.021113 0.13186 -0.0761838 -0.296465 -0.127191 0.243749 -0.36832 -0.177733 0.111344 -0.0680301 -0.0756076 0.121978 -0.315166 0.0873407 -0.132294 -0.0379289 -0.0857458 -0.0872643 -0.00609568 -0.22341 0.0398418 0.358379 -0.206565 -0.113856 0.0369925 0.264109 0.132407 -0.0592671 -0.0710609 0.119053 0.118247 0.0949664 -0.0894461 0.0057898 0.0702972 -0.0112252 0.127975 0.0333897 0.171709 -0.151915 0.0553508 -0.0367778 0.0419703 -0.160304 0.0915272 -0.17285 -0.0120921 -0.0896194 0.184209 -0.187555 -0.114046 -0.252874 0.149424 0.00976138 0.046183 -0.0143165 0.16388 -0.178178 -0.23762 -0.220517 0.0161603 0.132614 0.192022 -0.165912 -0.137688 -0.138182 -0.108964 -0.0713503 -0.120527 0.317892 0.191036 -0.295251 0.081697 -0.124401 0.15451 0.0506864 -0.0524346 -0.123177 -0.30684 -0.140921 -0.315403 -0.00412181 0.0711987 0.112323 -0.0254611 0.0473787 -0.0617262 -0.241556 -0.0104832 0.312426 0.3176 0.14889 0.222624 -0.163413 0.0453962 -0.274141 0.0954598 -0.308927 0.0786053 0.0483358 0.119975 -0.290895 -0.195614 0.0482741 -0.367519 0.0870892 -0.0833568 -0.0128235 -0.0524884 0.178534 -0.157459 0.0585758 0.073349 0.105452 -0.112344 -0.327581 0.154652 0.403532 -0.000324256 0.408257 -0.114053 -0.336501 0.0984818 0.261798 -0.124117 0.00718612 -0.096296 0.069064 -0.0934533 -0.157082 -0.0886524 -0.0571693 -0.00713633 -0.256231 -0.0707955 0.226602 -0.139373 0.331442 0.290845 0.0736861 0.0317795
說 0.0117894 -0.269007 0.00138738 -0.0308244 -0.0384737 -0.000566358 0.112652 -0.318328 -0.190595 -0.101467 -0.118577 0.0217146 0.114139 -0.0208778 0.0582411 0.0772666 -0.16909 -0.280839 -0.0713082 0.12779 0.23268 0.137152 0.140173 0.186505 -0.20101 -0.11549 -0.0944437 0.187025 0.0239891 -0.113029 -0.137111 0.197449 0.0991928 -0.117252 -0.181379 -0.120316 -0.24314 -0.0783949 0.131736 -0.0694395 -0.017226 -0.0941549 -0.211448 0.00688298 -0.0276204 0.177524 -0.108307 0.0597121 0.0100405 0.316607 -0.0747694 0.0649932 0.405406 -0.226084 0.14487 0.252351 0.0638261 0.0780691 0.141387 -0.00198339 -0.340738 -0.226766 -0.401207 0.188293 -0.271609 -0.112436 -0.164375 -0.0262847 -0.272749 0.0990117 -0.224948 -0.0694452 -0.0629085 -0.399628 0.230784 0.0630237 0.129502 0.215945 -0.00558272 0.200439 0.134186 0.0859094 -0.0211309 0.0552389 0.221272 -0.0126406 0.126663 -0.217734 -0.103276 0.0295071 0.0654835 0.266535 -0.101844 -0.200722 -0.0829097 -0.0671256 -0.0544566 0.0092668 0.139419 -0.312901 0.0543942 -0.028811 -0.0962735 -0.104243 -0.170625 0.185343 0.0211452 0.152046 0.142953 -0.0221786 0.0495645 0.0689009 -0.303644 0.0253115 0.0210882 -0.162211 0.00766482 -0.309563 0.169726 -0.164383 -0.109305 -0.164847 -0.181426 -0.165101 -0.0855274 -0.132792 0.115985 -0.111713 0.197316 -0.0195667 -0.0210865 -0.0705857 -0.0621835 -0.212026 -0.282797 -0.094614 0.325351 0.124963 0.03085 0.0210305 0.303055 -0.157843 0.104215 0.0389352 -0.167049 0.17457 -0.0485014 -0.0120018 0.0936841 -0.12146 0.0501105 0.0414077 0.0227252 -0.209489 -0.0712585 -0.086638 -0.241191 0.179138 0.0306968 0.279449 -0.138095 0.129313 -0.146923 0.144967 0.0710114 -0.0112806 -0.251243 0.0207796 -0.028184 0.140158 -0.203675 0.145324 0.128715 0.15228 0.0882671 -0.209802 0.101413 -0.0252266 0.302807 -0.0151397 -0.101253 -0.0504745 -0.0377785 0.123044 0.113854 0.141867 -0.257208 -0.35789 -0.0843424 -0.028626 -0.0155269 0.11489 0.129456 -0.103249 -0.0722524 0.0848854 -0.140402 -0.142257 0.262174 0.189449 0.21051 0.0216284 -0.163944 -0.248364 -0.0523252 0.273337 -0.199943 -0.183826 -0.0959812 0.179767 -0.213792 -0.136814 -0.00821924 -0.322247 0.229965 -0.278917 -0.143305 -0.167986 -0.0824889 -0.156217 0.106209 0.134778 -0.0305609 -0.0222902 0.000452255 0.265539 0.369621 0.250996 0.0882556 -0.154674 0.0527291 0.177367 0.129151 -0.159214 -0.0987579 -0.0282051 -0.166518 -0.148721 0.218127 -0.127081 0.0938396 0.0336358 0.0722239 -0.325177 -0.000957416 -0.21414 0.175041 0.364612 -0.155697 -0.0824641
看 -0.0792442 -0.077189 -0.0888209 -0.0806243 -0.0420035 -0.146133 -0.164861 -0.138262 -0.0962892 -0.0164609 -0.156081 0.0976201 -0.0336774 -0.234852 0.0314921 -0.00439251 -0.0912609 -0.26577 0.0269449 0.20758 0.339521 -0.144116 0.0872847 0.0880618 -0.0764721 -0.06359 -0.264044 -0.0844324 -0.081503 -0.349636 0.0661854 0.0690499 -0.0976356 -0.183122 0.0309936 0.140834 -0.334119 0.0892284 -0.121774 0.160251 0.129054 -0.0579097 0.0040135 -0.0412972 0.259884 -0.299209 0.00831743 0.0411893 0.0096891 0.221263 -0.0755358 0.0619233 0.275242 -0.243351 0.279132 0.28782 0.317672 -0.0128585 0.172425 0.0167597 -0.306179 -0.308264 -0.0816544 0.106425 -0.0292089 -0.102504 -0.214209 -0.0327763 -0.327253 0.212012 -0.112484 0.00693375 -0.0892438 -0.174427 0.1891 0.237074 0.0168539 0.150673 0.111294 0.19929 -0.0631031 0.00822886 -0.0654245 -0.0282525 0.0872568 0.0802571 -0.0705547 -0.143463 0.0326156 -0.0341041 -0.0870865 0.291969 -0.11313 -0.295178 0.062987 -0.264269 -0.391607 -0.115226 0.0738846 -0.0497061 -0.09232 -0.101178 -0.0565017 -0.249781 0.131984 0.121684 -0.12792 -0.119373 0.00934821 0.168098 -0.035235 0.205084 -0.141073 0.0266543 -0.0207972 -0.111184 -0.400088 -0.109229 0.309373 -0.159273 0.178966 0.0521878 0.122778 -0.214088 0.0635805 0.222925 -0.0975256 -0.0370872 0.111199 -0.268529 -0.208214 0.0953013 0.0526678 -0.045311 -0.1537 -0.0616897 -0.333016 0.0553823 -0.137537 -0.180133 0.174953 -0.132088 -0.0560415 -0.149111 0.0707063 0.0940378 -0.0110599 0.116999 -0.33684 -0.160619 0.214564 0.0486774 -0.383194 -0.335531 0.0700164 -0.287918 -0.0269961 0.339301 0.29311 0.0599618 -0.0072369 -0.10004 0.151946 0.0180138 0.123608 -0.214461 0.0365744 -0.136521 -0.134561 -0.172999 -0.00991899 0.192486 0.423083 0.113298 0.0258677 -0.0775433 -0.316962 -0.115303 0.0993335 0.138018 -0.186634 -0.0945243 -0.101247 0.326873 0.16415 0.448578 -0.0125217 -0.0639525 -0.0673998 -0.185303 0.0397769 0.337482 -0.130952 -0.262591 0.0545947 -0.0999922 -0.385029 -0.159939 -0.0705959 0.447479 0.0649928 0.0996787 -0.212842 -0.213473 0.0340683 0.205593 -0.103502 -0.0129897 -0.22151 0.0199629 -0.23456 -0.125143 -0.160995 -0.134028 0.199525 0.00342504 -0.131586 -0.121333 0.385829 -0.0475776 0.247663 0.358711 0.379657 -0.169675 -0.0526983 0.123894 0.207866 0.0864734 0.0391513 -0.00447322 -0.129217 -0.010623 0.147268 -0.238422 0.00634314 -0.299531 -0.145743 0.0417751 0.19617 0.14306 0.0806637 -0.0551522 -0.023018 -0.250561 -0.146536 0.0071585 -0.0447979 0.291153 -0.0314463 0.0233053
推 0.193877 -0.179339 0.0158267 -0.247357 -0.201483 -0.0114264 0.0610749 -0.307614 0.028572 0.078104 0.177136 0.175719 0.170383 -0.329382 0.192691 -0.270846 -0.0924004 -0.0206973 0.279403 -0.00431248 0.301974 -0.347102 0.329887 0.0273878 -0.0752333 -0.0306401 -0.231835 -0.155592 0.0712909 -0.289512 -0.0710379 0.204273 -0.112855 -0.270788 -0.249254 -0.106265 -0.182151 0.00146803 -0.0507787 -0.115927 -0.213756 -0.00728674 -0.0212575 -0.136949 0.116973 0.0963268 0.0764838 0.204295 0.152504 0.088405 0.147724 -0.0125381 0.423131 -0.0524279 0.166582 0.196979 -0.0246882 0.0221183 0.399226 0.0248847 -0.632006 0.037915 0.191867 0.115276 -0.0319147 0.106754 0.0412183 0.0578132 -0.198713 0.219543 0.090463 0.141255 -0.0750767 -0.126555 -0.113415 -0.0404798 0.35796 -0.326088 -0.0623439 -0.108802 -0.179016 -0.0621122 0.211386 0.452177 -0.0486567 0.128191 -0.293006 0.118878 -0.407012 0.20242 0.0633756 0.133392 0.294788 0.0388864 0.273639 0.0188182 -0.160235 0.0339232 -0.105178 -0.109104 0.373555 0.156061 0.151734 0.141553 -0.0447566 0.0304049 0.0367336 0.0247802 -0.281364 0.402244 -0.152241 0.114225 0.00340351 -0.041446 0.282147 -0.0702367 -0.149184 -0.0221421 0.230879 -0.240451 -0.0799973 0.123454 0.123329 -0.139536 0.361146 -0.00781241 -0.140506 0.0545243 -0.189115 0.00969274 -0.192474 0.107291 -0.345214 0.0227041 0.0443484 -0.0132432 0.173188 -0.060931 -0.0971332 -0.0367406 0.483827 0.19064 0.0513956 -0.243353 -0.173765 0.137801 0.0713614 0.159695 -0.0129812 -0.122491 0.23926 0.18008 -0.205964 -0.0484113 -0.0830857 -0.358925 -0.0208236 0.239745 -0.0957362 0.121958 -0.234885 -0.310029 -0.0253449 0.423723 0.207412 -0.161993 -0.348601 -0.0232633 0.00475422 0.10569 -0.310922 -0.132439 0.165321 0.0290409 0.235311 -0.17695 -0.0381488 0.220835 0.275896 0.0307824 0.128358 0.469452 -0.0362148 -0.0385637 0.0814879 0.147101 -0.0932393 -0.149149 -0.0562571 -0.221911 -0.246436 0.161509 0.00631746 -0.0504581 -0.0363243 0.0216001 -0.112324 -0.260425 0.0326217 0.260415 0.214427 -0.0419407 -0.0608876 0.048482 -0.13111 -0.0873577 -0.0314339 -0.071365 0.153223 0.225215 -0.34836 -0.0410661 0.334141 -0.304647 0.163203 0.120686 -0.179462 -0.372543 -0.0132847 -0.104112 0.138909 0.177993 0.0230207 0.17478 -0.154856 0.251947 0.174305 -0.0997117 0.194729 -0.146361 -0.211435 -0.0780754 0.203667 -0.26826 -0.0573895 -0.548164 -0.0678496 -0.158004 -0.170243 -0.158909 -0.00828033 -0.323039 0.152911 -0.472017 -0.0838162 -0.353129 0.140574 0.134243 -0.0379042 -0.103866
上 0.187088 -0.253744 -0.0471546 -0.121988 0.0355325 0.0386662 -0.263516 -0.148515 0.00913457 0.193141 -0.251334 0.383563 -0.149817 -0.102083 -0.093699 0.167044 -0.285142 -0.0732423 -0.0939649 0.528389 0.0884045 -0.140453 0.0237062 -0.0632002 -0.122852 0.0390302 0.0534596 -0.0206242 0.204467 -0.038394 -0.32506 0.260149 0.102226 -0.0947109 0.0666504 -0.175329 0.0801871 0.039898 -0.144592 0.173479 -0.168603 -0.0665868 -0.0958985 -0.209132 0.0104481 0.0110577 0.100378 0.0840706 0.176316 0.284166 -0.118042 0.133192 0.119237 -0.338858 0.471607 0.476079 0.0422554 -0.317334 0.00846202 0.00110943 -0.160817 -0.131195 -0.145648 -0.144676 0.109439 0.178298 0.0769811 0.0288425 -0.0639351 0.474194 -0.398557 -0.0237824 0.181205 -0.163989 0.142765 0.221134 0.181656 0.0401646 -0.0126579 0.0574599 0.00835534 0.104776 0.394963 0.0100436 0.167783 -0.00516812 0.00166834 -0.179739 -0.1143 0.084462 -0.0216827 0.406098 -0.0179818 -0.288667 0.0757721 -0.320416 -0.577633 -0.236625 -0.258582 -0.193588 -0.0469334 0.214997 0.264174 0.0973699 0.0193107 -0.19909 -0.0433445 -0.0748627 -0.0451567 0.0242539 0.326447 -0.0221759 -0.192503 -0.0589195 0.393643 -0.273891 0.0386689 -0.190918 0.0897859 -0.258074 0.00483728 -0.312455 -0.355363 0.160617 0.197604 0.0319863 -0.159291 0.163862 -0.161795 -0.0620165 -0.120911 0.138489 -0.0686229 0.0504531 -0.0121181 -0.350481 -0.14542 0.354474 -0.0801926 -0.132147 0.225997 -0.277554 -0.0347849 -0.172909 -0.288609 -0.192405 0.104648 -0.072523 -0.170083 0.000424011 -0.127683 -0.183706 -0.18747 -0.184073 0.157825 -0.0951031 0.25746 0.409581 -0.0580165 0.0905043 -0.0195306 -0.307712 -0.218989 0.0527514 -0.0888379 0.0138509 -0.377577 0.161379 -0.225953 0.0494317 -0.127845 0.154783 0.487765 -0.074939 -0.240822 -0.231688 -0.254107 -0.116629 0.316903 0.261099 -0.482137 0.0519579 -0.330114 -0.14722 0.0426607 0.0755435 -0.0295496 -0.123544 -0.342055 -0.398988 -0.186563 -0.18285 -0.0691355 -0.061218 -0.143821 0.221889 -0.196216 -0.105577 0.357548 0.108633 -0.0684342 -0.0450562 -0.0617562 -0.137704 -0.213798 0.0252733 0.163696 0.0253299 0.20083 0.229712 -0.370637 -0.263216 -0.0726069 -0.217956 0.213424 0.0154003 -0.15213 0.0669157 0.131911 -0.091239 -0.0785136 0.280343 -0.00136089 0.119634 -0.152118 0.0391406 0.298541 0.165841 0.0807277 -0.0368265 0.0647387 -0.427182 -0.0624102 0.0367116 -0.0502591 0.171529 -0.168175 -0.332807 -0.0704602 0.149192 0.16392 -0.0731271 -0.199785 -0.290839 0.229005 -0.134287 0.0566651 0.0831663 -0.0411771 0.153689
大 0.284609 -0.0835266 0.124373 0.107644 0.0865697 0.018253 -0.0727599 -0.253319 0.162008 -0.0219805 -0.163234 0.118833 0.12253 -0.0110193 -0.159557 0.0475554 -0.241777 0.0604944 -0.0863282 0.209364 0.272085 -0.349321 0.0620923 -0.109399 0.00495824 -0.42628 0.117285 -0.276943 -0.227631 -0.0328093 -0.0576266 -0.0875961 -0.209048 -0.0348619 0.367639 -0.327682 0.0500008 -0.206405 -0.143389 0.00834613 0.206988 -0.0922627 0.204612 0.110653 -0.115544 0.167797 0.0509618 0.103631 -0.0670968 -0.195498 0.452653 -0.13059 0.239181 0.0916558 0.149868 0.134014 0.144897 0.0472012 0.517526 0.0530216 -0.16703 -0.00491538 0.0488462 0.0104632 0.00972086 -0.133053 0.137951 0.0555307 -0.0546877 0.132965 0.103238 -0.0930734 0.0279704 -0.502569 0.0369984 0.167821 0.0691463 0.0838946 -0.114701 -0.117484 0.0713442 -0.132798 0.287741 -0.0593252 -0.149825 -0.0609628 0.332086 -0.126638 0.0564172 -0.0732066 -0.0482629 0.304705 0.0653929 -0.137902 -0.00440661 -0.420623 -0.059382 0.0457345 0.0347611 -0.149981 -0.0173289 0.182575 0.154594 0.338711 -0.129775 -0.10034 0.107595 -0.0751272 0.0803915 0.176434 -0.162734 0.0254451 -0.0893848 -0.381219 0.407108 -0.117244 -0.322427 0.0422935 0.415056 0.0759463 0.00305357 -0.0540116 -0.138393 -0.266014 -0.0519254 -0.039623 -0.0945084 0.15025 -0.175494 -0.24649 -0.0025004 0.266473 -0.0987731 0.138085 -0.573528 0.363582 0.226043 -0.0678654 -0.363652 0.27377 0.577629 -0.291862 0.178752 -0.0435136 0.121904 0.26725 0.267516 -0.246632 -0.0386679 0.129772 -0.162061 0.0648565 -0.112392 0.0629437 0.188903 -0.113169 -0.0998586 0.349311 0.0673832 0.12211 -0.106612 -0.0517237 0.021217 0.0723472 0.108577 0.0629699 -0.161147 -0.0407781 -0.109397 0.214272 0.0873163 0.290439 -0.0344066 0.0624395 -0.00592572 0.0821056 -0.060362 0.00301518 0.309499 0.303254 -0.255676 -0.0276053 0.299615 0.186711 -0.056062 0.130694 0.238289 -0.0142648 0.152369 -0.0274049 -0.123238 -0.290594 -0.0419929 -0.100846 -0.0538238 -0.0220383 -0.312864 0.28324 -0.101523 0.302933 0.203053 0.0944564 -0.180248 -0.0140897 0.0343436 0.198268 0.0974264 0.0469066 0.113051 0.0735013 -0.162667 0.0322354 0.0189573 -0.204264 0.452648 -0.126173 -0.100063 -0.0503183 0.109208 -0.0596301 0.0324825 0.237666 0.297984 0.128881 -0.542107 -0.0460149 0.440674 0.0943836 0.4801 -0.117652 -0.171647 0.199566 0.0927236 -0.269995 -0.00812852 0.0778313 0.0654837 -0.158479 -0.00301265 -0.250004 0.337461 -0.609868 0.127059 0.0570122 -0.0010806 -0.147343 0.151612 0.0779301 0.115714 -0.124329
一 0.278414 -0.216357 0.119449 -0.0609457 -0.0529397 0.154431 -0.18092 0.223701 0.0292631 0.0329941 0.26688 0.191597 0.0594289 -0.355169 -0.30183 -0.103853 -0.171465 -0.0512156 -0.098146 0.250392 0.228502 -0.130923 0.114517 -0.175199 -0.0656788 -0.0816696 -0.446753 -0.047434 -0.168978 0.0157064 -0.0642571 0.080788 -0.244062 -0.0741079 -0.0326848 -0.365859 -0.102066 -0.137479 0.220338 0.0645392 0.0429358 0.112673 -0.251226 -0.0299818 -0.041161 -0.0806662 0.0875702 0.037313 -0.146642 0.0410136 -0.205461 -0.106014 0.0603168 0.018787 0.432081 0.0258393 -0.0846917 0.261608 0.23994 -0.129967 -0.0540821 -0.130873 0.229943 0.0195821 -0.0973708 -0.195363 -0.104592 0.0232283 -0.00944538 0.279695 -0.0791028 -0.211104 0.0867603 -0.245418 0.150395 0.0649312 -0.0400732 -0.171529 -0.21501 -0.0690046 0.0470605 -0.0611004 0.192527 0.142262 0.0697052 -0.117249 0.0683517 -0.240464 0.257646 0.114127 -0.0784138 0.0849963 -0.021018 -0.316574 -0.198125 -0.0783131 -0.126952 0.27887 0.382841 -0.453474 -0.208455 -0.00626146 0.0536456 0.0342696 -0.498043 0.250105 0.334345 0.117095 -0.487095 0.137764 0.13309 0.153644 -0.166256 0.18153 0.103052 -0.158152 -0.458035 -0.137917 0.165421 -0.27493 -0.284125 -0.319383 0.0575472 -0.43976 0.278093 0.143316 -0.0304885 0.17499 0.127594 -0.350045 -0.0563094 -0.0975429 0.422529 -0.0215886 -0.162592 -0.243811 0.0180409 0.0868069 -0.124349 -0.0422715 0.0533558 -0.18568 0.183047 0.0534778 -0.0476152 0.0912013 0.360029 -0.121756 0.00865104 0.0147439 -0.0131441 0.165254 0.00599323 -0.228721 0.303087 -0.00926289 -0.137316 0.12919 -0.198617 -0.288452 0.000834243 0.120939 0.303272 0.439321 -0.136863 -0.0178309 -0.466494 0.0272617 -0.261566 0.337824 -0.221334 0.00322119 -0.0487657 0.169633 0.13957 -0.23824 -0.149333 0.108558 0.200564 0.120204 -0.252301 0.000341074 -0.0874839 -0.142579 0.0266705 0.104695 -0.0531782 -0.0986536 -0.200471 -0.206472 0.00184838 -0.437341 0.0364154 -0.0736997 -0.0662638 -0.048822 -0.118925 0.202197 0.202995 0.165435 0.244058 -0.113421 -0.167344 -0.131912 -0.204002 0.208352 0.0496729 -0.130378 0.310161 -0.0643848 -0.282798 -0.306077 -0.103507 0.0395968 0.34961 -0.0796917 -0.20053 -0.399251 0.108657 -0.282467 0.263687 0.353632 0.0939461 -0.0349102 0.106097 -0.19638 0.233369 0.231151 0.0016297 0.165155 0.110987 0.0803644 -0.0713895 0.0223656 -0.00307421 0.108399 0.025899 0.511388 -0.241023 -0.132199 -0.319242 -0.138778 -0.009643 -0.0139469 0.0525419 -0.265529 0.34702 0.230669 -0.110671 -0.093059
台灣 0.0150076 -0.227021 -0.0110577 -0.106371 0.0676175 -0.0487254 -0.0851941 -0.0543512 -0.118148 -0.0593734 -0.00311209 -0.115604 -0.0482239 0.154947 -0.04132 0.09824 0.0296599 0.0277872 -0.279582 0.0213519 0.257163 0.0689611 -0.082138 -0.0450534 -0.0006359 -0.140562 -0.12561 0.209054 -5.24536e-05 -0.0458969 0.0860359 0.205372 -0.130692 -0.327356 0.0977907 0.207955 -0.13882 0.022427 -0.0951987 -0.0744529 -0.00862207 0.0363957 -0.119804 -0.265855 0.0219941 0.341873 -0.0522299 -0.00619253 -0.0956031 -0.132096 -0.011151 -0.0243004 0.269229 -0.193844 0.065196 0.241293 0.0270113 0.0564559 0.265836 -0.255197 -0.00968572 0.148553 -0.253558 0.125781 -0.0168396 -0.189626 0.0109895 -0.0864276 -0.227499 0.2662 0.0115816 -0.223333 -0.49164 0.0118362 0.181327 0.279501 -0.15351 -0.0009415 -0.0410522 0.0476656 0.0852472 0.147682 0.136639 0.178748 -0.00379043 0.00281666 0.256378 -0.138458 -0.104569 -0.230465 -0.283365 0.326275 0.0127145 -0.143711 -0.0158522 0.303971 -0.251481 -0.0976611 0.0711802 -0.305335 -0.123216 -0.214404 0.0673709 -0.199159 -0.18901 -0.280457 -0.0582373 -0.262077 -0.285332 0.116008 0.101821 -0.260866 -0.312181 -0.454127 0.0458282 -0.252308 -0.0603512 -0.0145561 0.136524 -0.145823 -0.259009 -0.0101496 -0.0394061 -0.113031 -0.0480666 -0.123921 0.283911 0.0506479 -0.135923 0.0836789 0.0277121 0.0205884 -0.143403 0.179884 -0.168064 0.0497932 0.234832 0.0598921 0.0356778 -0.0325498 0.245532 0.019278 0.0979252 -0.0251673 0.0278961 0.117024 0.00493595 0.0510043 -0.20918 -0.0875067 0.105646 0.0799568 -0.192069 0.0171369 0.181994 0.223144 -0.0800497 0.285795 -0.343924 -0.0679054 -0.17807 -0.091079 0.0197357 0.151599 -0.122711 0.0786533 -0.333407 -0.362363 -0.0821204 0.147766 -0.119537 0.0723197 0.0592595 0.0747016 0.102667 0.0228938 -0.012663 -0.0162788 0.00254112 0.0606805 -0.340229 0.272628 0.121011 0.0241466 -0.147433 -0.00274301 0.232784 -0.135821 -0.314357 -0.0223194 0.0722233 -0.160353 0.0857789 -0.0362573 0.0357406 0.0671868 -0.442889 0.121593 0.257329 0.0953907 0.128049 -0.217132 -0.080339 -0.0248607 -0.0149933 -0.0801075 0.0362313 0.0623839 -0.237199 -0.0420256 -0.188033 -0.193808 0.153523 -0.351921 0.272015 -0.0685422 -0.320611 -0.396177 -0.0616689 -0.38336 0.316782 0.305096 -0.159566 -0.26712 -0.258505 -0.078198 -0.0821113 0.179189 -0.0489761 -0.292198 -0.0601421 0.077602 0.188831 -0.144394 -0.113861 -0.0279357 0.0289531 -0.370061 0.0413232 -0.122525 0.296054 -0.0387326 0.0153766 -0.363814 0.122718 0.16977 0.175723 0.249086 0.147496 -0.317813
小 0.312286 0.0617848 0.0898017 -0.0366549 0.23256 0.176088 -0.0249652 -0.242777 0.0690735 -0.0564961 -0.192458 -0.0141905 -0.0830954 -0.227363 -0.0293254 -0.189272 0.0913218 0.262514 -0.29685 0.248776 0.115512 -0.125558 0.142047 0.121424 0.213589 -0.0235004 -0.236235 -0.113222 -0.0896838 0.017194 -0.00867308 -0.0358908 -0.192488 0.181806 0.277936 -0.131232 -0.590986 -0.241933 -0.215054 -0.238148 -0.00739217 -0.188681 0.0891485 0.0421314 -0.0707299 0.0401936 -0.28488 -0.0658384 0.0404484 0.0133423 0.280168 0.169858 0.114068 -0.0272978 0.300784 0.00693253 0.237383 0.118169 0.263985 -0.30716 -0.371255 -0.109114 0.148423 0.0521836 0.357107 -0.251516 0.0139194 0.297749 -0.0340954 0.303503 0.164443 -0.301238 0.0496382 -0.1327 -0.0151863 0.151851 0.373564 0.201154 -0.0715508 0.335853 -0.157607 -0.10934 0.319893 0.0464455 -0.0453914 -0.0167459 0.0153696 -0.0581553 0.0450557 -0.0137837 0.0544225 0.26449 -0.249333 -0.0945062 -0.0375974 0.02474 0.142224 0.125822 -0.233655 -0.0458062 -0.0589679 0.108841 -0.1597 -0.121927 0.0575228 0.159138 0.224748 0.148255 -0.190577 0.425514 0.268497 -0.0363243 -0.318787 -0.212901 0.16839 -0.105164 -0.290318 -0.344073 0.0734518 -0.0831327 -0.158971 -0.0452091 -0.404988 -0.00714056 -0.137403 0.319615 0.214435 0.0575153 0.139587 -0.206328 0.0579721 0.208714 -0.310389 -0.146044 -0.123026 0.119246 -0.049311 -0.0552386 -0.272158 0.305685 0.20199 -0.166875 0.0865021 0.152974 -0.198027 0.253203 0.458353 -0.0462391 -0.234928 -0.145758 0.00434296 0.342785 -0.0206998 -0.0276444 0.218157 -0.0562217 -0.412234 0.352884 0.0899983 0.0710986 -0.113288 0.0236114 -0.0702201 0.069189 -0.0575378 -0.196996 -0.565111 -0.0166073 -0.333699 0.432149 -0.0925898 0.18761 0.342336 0.0570375 -0.0421654 -0.176535 0.0383009 0.00148628 0.225215 -0.126926 -0.0987678 0.262463 0.0704423 -0.175576 -0.14664 0.051898 -0.00282376 -0.292779 -0.321836 -0.0710525 -0.024074 -0.0595669 -0.18462 -0.0501011 -0.136359 -0.19197 -0.108036 0.137525 0.1765 0.236819 0.00508243 0.162426 -0.33508 -0.340366 0.200889 0.307819 0.0595449 0.132304 0.0571081 0.186276 -0.116918 -0.106952 -0.481336 -0.111987 0.372419 0.021253 -0.237728 0.260479 0.464831 0.0347013 0.196776 0.101352 -0.0568917 -0.0331226 0.0540639 -0.124543 0.335634 -0.0679625 0.424583 -0.113027 -0.0837709 0.397817 0.0537226 -0.128151 -0.0622758 -0.112063 -0.179224 -0.181679 -0.044611 -0.000559893 -0.0870855 -0.359607 -0.00824985 0.0103595 0.136959 -0.161546 0.330777 -0.00865697 0.0804483 -0.495629
女生 -0.0534041 0.122112 0.240617 -0.122913 -0.103862 -0.0114064 -0.0922429 -0.110681 -0.135862 0.163359 4.90327e-05 0.25879 -0.00645395 -0.255089 -0.12045 -0.180331 0.0428231 0.170131 0.0460868 0.151056 -0.0901546 0.0536578 0.125287 -0.0769525 0.16741 0.102269 -0.0657145 -0.34896 -0.0525184 -0.107295 -0.158359 0.455304 -0.222101 -0.262198 -0.107134 -0.0703938 -0.181912 -0.0920752 -0.402608 -0.18816 0.26626 0.00895892 -0.0078391 -0.0692954 0.0599679 0.165596 0.101617 0.168327 -0.224042 0.0925177 0.00111402 -0.144736 0.118556 -0.0951012 0.319709 0.167252 0.22382 -0.360146 0.0296988 -0.119343 -0.315714 -0.133915 0.0250146 0.311603 -0.298501 -0.148749 -0.156965 0.143901 -0.37138 0.317079 -0.00338564 -0.158013 0.0774164 0.278763 -0.041915 -0.0108401 -0.0783501 0.187718 -0.372463 0.128817 -0.203444 0.0585287 0.161422 0.2267 -0.066939 -0.159801 0.13555 0.0894806 0.103023 -0.0664797 -0.154354 0.151609 -0.120274 -0.247754 -0.11959 -0.307536 -0.356551 -0.0798215 0.187033 -0.100081 -0.133007 0.0790743 -0.0373553 -0.379714 -0.278742 0.115551 0.023737 0.00657787 -0.0140067 -0.0960396 -0.105322 0.0186073 -0.57299 -0.25516 0.239246 -0.320045 -0.0229844 -0.35068 -0.0993825 -0.391148 -0.0484095 -0.179756 0.186063 -0.161193 0.00286892 -0.116064 0.0934117 0.0783301 -0.0607248 -0.245547 0.475022 -0.0197045 -0.281004 -0.0909294 0.159125 0.116389 0.256374 0.106914 0.0633816 -0.0274686 -0.135571 -0.191424 -0.0428849 0.0101207 -0.0944818 -0.109447 0.109454 -0.0109293 -0.196957 -0.413333 0.149887 -0.0110927 0.0053917 0.204294 -0.388023 -0.181681 0.139789 -0.233876 0.038866 -0.0450435 0.153871 0.284042 0.010373 -0.0910286 -0.0604354 0.134999 -0.233395 -0.152785 -0.357554 0.0587932 -0.0126665 0.519019 0.104296 0.114103 -0.137929 -0.258333 -0.0384054 0.0831406 0.112066 0.161783 -0.28423 0.00603011 -0.0319378 0.236567 -0.116871 -0.00349743 -0.114426 -0.379539 -0.0502671 -0.16635 0.184544 -0.0459444 0.141335 -0.168226 -0.342417 0.174811 -0.0212034 0.018705 0.248837 0.141637 0.194811 0.0386735 -0.10862 -0.359786 -0.0415367 0.115861 -0.268836 0.0818233 -0.106204 0.388262 -0.245908 -0.0321492 -0.207512 -0.234766 0.417064 -0.0840054 -0.196944 -0.0251861 0.198426 -0.137304 -0.0185855 0.428609 0.130565 0.189408 -0.289115 -0.140849 0.170042 -0.0597489 0.378847 -0.124784 -0.355668 0.252625 0.22292 -0.019475 -0.367319 -0.137926 0.0377146 -0.0515071 0.125684 -0.263915 0.0369024 -0.0299268 0.0647072 -0.310136 -0.0815208 -0.138155 -0.0335183 0.271975 -0.158838 0.176592
八卦 -0.265516 -0.244725 0.141387 -0.611804 0.0149479 -0.310573 0.260739 0.0633578 -0.0444873 -0.0855371 -0.0211294 0.208523 0.461939 -0.135588 -0.0130932 -0.239057 -0.492789 -0.126894 -0.293118 0.397053 0.0834682 0.0297482 0.315938 -0.278228 -0.0616666 -0.0267947 0.0550244 0.177516 -0.161918 0.0230676 -0.124568 0.495737 0.148356 -0.204788 -0.102688 -0.0621126 -0.390844 -0.160608 -0.265982 -0.0595202 -0.116966 -0.0287381 0.219574 -0.2088 0.327932 0.089803 -0.112266 0.184284 -0.0877471 0.244263 0.0986464 -0.0322055 -0.0394007 -0.221058 0.0324651 0.351479 -0.116537 0.015584 0.303771 -0.216513 -0.239253 -0.0304411 0.342664 0.0949943 -0.197366 0.0355004 -0.253474 0.26509 -0.18893 0.248677 -0.164609 0.2015 0.13589 0.00666278 0.143463 0.294017 0.160906 0.3008 0.0628825 0.136302 0.0896976 0.392321 -0.0432703 0.175826 0.0639956 0.287245 0.364519 0.0895153 -0.0527361 -0.045843 -0.196237 0.340023 0.0515902 0.119774 -0.0947374 0.0270996 -0.271859 0.0982273 -0.12573 -0.117674 0.143503 -0.260384 -0.233163 -0.0171286 0.0321705 0.0309704 0.287987 -0.197242 -0.392657 -0.117629 0.0254729 0.109814 -0.251986 -0.486942 -0.076349 -0.0398533 -0.10507 -0.154869 0.128336 0.0725321 -0.0606865 0.0469751 -0.0309734 -0.085543 -0.0488203 -0.00815397 0.0449009 0.422178 0.312743 0.0258538 -0.122149 0.0568445 -0.25676 0.110967 -0.214105 0.0702263 -0.0627023 -0.0203097 0.267896 -0.215625 0.182401 0.0695756 0.185304 0.30473 -0.525341 -0.0590927 0.113566 -0.209532 -0.258046 -0.0696867 0.143891 0.209443 -0.232175 -0.0566525 -0.214428 -0.376863 0.132375 0.129071 -0.0665568 -0.0643611 -0.0964139 0.243113 -0.00108499 0.236658 0.303298 -0.109265 0.0242438 0.0150252 0.0736815 0.145839 -0.304736 0.586784 0.298578 0.287251 0.0613864 -0.0250636 -0.272854 -0.0357145 0.112939 0.00566955 -0.0387529 0.178289 -0.134842 -0.0902584 -0.24844 -0.0399027 -0.0748507 -0.580073 -0.411099 -0.0849686 -0.261788 -0.218305 0.090278 0.0553952 -0.0580735 -0.0628288 -0.179625 -0.264198 -0.139361 0.228458 0.308483 0.366321 -0.416796 -0.524756 0.213538 -0.0171164 0.0772617 -0.18295 0.249119 -0.124677 -0.323128 -0.208092 -0.00593653 -0.129447 0.141855 -0.246183 -0.362114 -0.514888 0.0612343 -0.529247 0.539504 0.130318 0.0469332 -0.106968 -0.15771 0.0657038 0.247105 -0.00772593 0.353594 -0.0291667 -0.130676 -0.017813 0.376321 -0.0891413 -0.239475 0.00433135 0.211235 -0.258615 -0.119469 0.107953 -0.155922 0.135002 0.239304 -0.220773 -0.0262852 0.0422683 0.303417 0.0672175 -0.0426979 -0.062187
下 0.220104 -0.0108399 -0.0146787 0.0165037 -0.388849 0.181427 0.0333827 -0.211292 -0.136173 0.0521494 -0.0674159 0.0953717 -0.175852 0.0428991 0.0989442 -0.313035 -0.11237 0.0872078 0.035418 0.385939 0.389863 -0.132567 0.0628006 -0.251633 -0.0375054 0.0641178 0.0352313 0.0937965 -0.256049 -0.0407473 0.0970136 -0.0409689 -0.301702 0.0177408 0.166505 0.0463864 0.214282 0.296395 -0.104867 0.138825 -0.183244 -0.0242442 -0.107141 -0.118267 0.198904 0.221798 0.278108 0.290052 0.206061 0.186988 0.0340338 -0.0159049 -0.210444 -0.326416 0.0211235 0.317993 0.00347286 0.0134489 -0.187281 -0.236532 -0.144756 -0.276958 -0.165913 -0.20268 -0.232512 0.0587351 0.0838651 0.276348 -0.342296 0.0897552 -0.0906789 0.155612 -0.030408 -0.212989 0.0218262 -0.383547 0.420939 0.299192 0.0390833 0.182961 0.223658 0.0857055 0.287324 0.133498 0.0453879 0.0333787 -0.00347334 -0.0709827 0.248781 -0.0652989 -0.0526407 -0.0187288 0.00206232 -0.246752 -0.217585 0.0856197 -0.127822 -0.144191 0.249831 -0.410586 0.110824 0.167056 -0.0399212 -0.0462969 -0.327151 0.0262138 -0.171915 0.21479 -0.145519 0.0271637 0.209668 -0.159153 -0.301936 -0.144201 0.421131 -0.210069 -0.469194 -0.197773 0.388641 -0.525007 0.130039 -0.111782 -0.167495 0.306783 0.0413 0.0873031 0.00238063 -0.00714293 0.218286 -0.198874 -0.000435489 -0.239659 -0.238361 -0.281383 -0.145066 -0.0906848 0.115542 0.195814 -0.200145 0.340894 0.154897 -0.264063 0.0795248 -0.117568 0.00588116 0.1317 -0.0514814 -0.261627 -0.0524037 0.474154 0.0146732 0.0444948 -0.0633411 0.240722 -0.0579441 0.222187 0.0410384 0.0976808 -0.0752113 -0.284599 -0.183247 -0.149687 0.292932 0.192721 -0.216433 0.0886696 -0.23575 -0.076917 0.181537 0.0207029 -0.174507 -0.125016 0.573222 0.0351408 -0.264471 0.0452933 -0.0304524 0.154341 0.128775 0.125581 -0.461629 -0.0478401 -0.32283 -0.262675 0.101148 0.0594479 -0.110348 -0.339205 -0.141614 -0.0323003 0.152541 0.140775 -0.00328651 -0.113967 0.0665045 -0.0889221 -0.260853 0.281541 0.157105 0.572108 0.215528 -0.487129 -0.16757 -0.218994 0.0761096 0.201787 0.110594 0.399911 -0.0963363 0.0525446 -0.620837 -0.183532 0.197647 0.0523295 0.0956717 -0.179875 -0.0876518 0.091413 -0.271774 -0.117574 -0.0392124 0.376082 0.163926 -0.0738355 -0.389841 -0.00715311 0.314624 -0.170148 -0.00489172 -0.225143 -0.158426 -0.0654881 0.201399 0.133432 0.155506 0.134425 -0.335539 0.00622167 -0.050904 -0.0527582 -0.260594 -0.0163248 0.0231821 -0.113221 -0.231145 -0.298343 0.14124 0.28591 -0.0954374 -0.54429
餐廳 0.0422969 0.324735 0.325988 0.084627 0.186934 0.0721 -0.164822 -0.24371 -0.0680229 -0.0399705 -0.331202 0.346934 0.392082 0.249948 0.144276 0.234198 -0.278709 -0.279734 -0.0629887 -0.0275468 0.244901 0.251917 0.33141 -0.0764325 0.430708 0.0726147 -0.127166 -0.0828713 -0.10389 0.285375 -0.148133 0.0448954 0.195629 -0.0238571 0.114468 -0.0290291 -0.245302 -0.143988 -0.511609 -0.316378 0.0175701 -0.410102 -0.111992 0.0118302 -0.101153 -0.0731957 0.421196 -0.132008 -0.279984 0.0886382 -0.0132927 0.413889 0.104829 -0.248757 0.126528 0.157513 -0.0915082 -0.198728 0.118429 -0.510379 -0.365638 -0.228886 -0.118251 0.220804 -0.4278 -0.501172 -0.00649249 0.000566604 -0.578902 0.335369 -0.0683203 0.285424 0.0436066 -0.169574 -0.00700245 0.117473 -0.0253304 0.430439 -0.430999 0.229093 -0.089122 -0.00549395 -0.0182625 0.192459 0.0504841 -0.040671 -0.0357492 -0.266686 -0.0599029 -0.147514 -0.222611 0.0318194 0.104561 0.0560277 0.00104628 0.0952021 -0.100548 -0.164356 0.19489 -0.120953 -0.204803 -0.119907 0.236836 -0.165798 -0.245082 0.0762634 0.041954 0.285238 -0.0844054 -0.0345666 0.132177 -0.39066 -0.0395132 0.0594888 0.106662 0.102726 -0.371623 0.115592 -0.0317533 -0.284785 -0.0506262 -0.0243097 0.155069 -0.308302 0.0612872 -0.252707 0.336716 -0.0582318 0.263284 0.0231363 -0.132238 0.0669277 0.134145 -0.221573 0.055892 0.178494 0.0879487 0.0376072 0.112251 -0.151634 0.303806 0.200679 -0.205357 -0.0743021 -0.0967477 -0.222765 -0.154307 -0.0777206 -0.176865 0.189771 -0.284113 -0.141362 -0.0246713 0.254525 0.0246185 0.0158421 0.105333 0.0117075 -0.270817 -0.102902 0.146603 -0.228846 0.112202 -0.00749977 0.0432541 0.158443 -0.0621167 0.00290918 0.0235727 -0.311508 -0.185761 -0.0924055 0.0962679 0.0767203 0.116204 -0.161946 -0.0158875 0.0649785 0.0538481 -0.0131358 -0.365613 -0.144473 0.134224 0.109473 0.311807 0.0918001 -0.132923 -0.526447 -0.0257566 0.0470959 -0.252215 0.0849614 0.0348342 -0.10901 0.244987 0.383064 -0.404308 -0.173909 0.0470992 0.157924 0.360295 0.260755 -0.0505021 0.0247377 0.230106 0.181451 -0.0660222 0.190625 -0.159216 0.197411 -0.20963 0.140256 -0.05142 0.0224172 0.235332 -0.354892 -0.200551 -0.157802 0.263931 0.0844184 0.410506 0.0942156 0.200544 -0.111403 -0.178082 -0.16946 0.337418 0.405571 0.259227 -0.269642 0.185024 0.130274 0.0166957 0.0105022 -0.0840273 0.175032 -0.102579 -0.000513263 -0.206238 0.089853 -0.162019 -0.484675 -0.0346671 -0.334637 0.286506 0.282127 0.393772 0.18749 0.091079 0.204571
高 0.039161 -0.175324 0.114595 0.13573 0.087353 0.034652 0.157199 -0.42993 0.186325 -0.223086 -0.182252 0.382363 0.212613 -0.27216 0.0446953 0.395768 0.123523 -0.248773 0.0658104 0.442079 0.0300694 -0.021868 -0.017187 0.38798 0.171739 0.0995552 0.0551325 0.267897 0.0766703 0.256633 -0.125078 -0.00128296 -0.563532 -0.547886 0.319907 0.0910016 -0.24559 -0.0932959 0.0760625 0.239936 0.139229 -0.0775255 0.234934 0.0478003 0.131909 -0.0571062 0.0113383 0.52734 -0.0566372 -0.0334317 0.126527 -0.219715 0.210236 -0.0566355 -0.0611752 0.607245 -0.132048 -0.0969442 0.504483 -0.155234 -0.196261 0.0655759 -0.39087 0.131024 0.0517486 -0.495253 -0.0348972 -0.119041 -0.207584 0.305682 0.014961 0.113407 -0.00277918 0.228387 0.00954249 0.418661 0.000962197 0.0402961 -0.181145 0.0367084 0.0829355 0.0644122 0.0988243 0.299878 -0.36847 -0.337437 -0.324731 0.116706 -0.0122578 0.135451 -0.144259 0.286935 -0.100148 0.222058 -0.244788 -0.30945 0.00407653 -0.15679 0.056303 -0.25884 -0.0122865 0.0668757 0.184315 -0.23141 -0.385207 -0.109455 0.462863 -0.0511811 -0.235143 0.177309 0.177475 0.0304749 -0.185383 -0.00638044 0.211392 -0.297836 -0.11469 -0.190888 0.545041 0.0417088 0.0391216 -0.2491 -0.43932 -0.0699237 0.200923 0.139072 0.172566 0.144923 0.344572 -0.0917051 -0.0993151 -0.120492 -0.207112 -0.0502981 -0.160594 0.344654 -0.088498 0.354281 -0.384159 0.483857 0.124923 -0.0844959 0.0671517 0.106033 0.185715 0.212784 -0.00557253 -0.121772 -0.370035 0.0603873 0.054132 -0.187768 0.000923963 0.0448864 0.0318057 -0.0548803 -0.011822 0.137514 -0.00951443 -0.106905 -0.459737 0.0629161 -0.0249163 -0.0465978 0.285628 0.190376 -0.457207 -0.183987 -0.302051 0.131386 0.0363286 0.0866885 0.0525596 -0.0713384 0.0817039 0.088434 -0.114166 0.0985615 0.289118 -0.0950254 -0.0928663 -0.0578476 0.061203 0.116295 -0.230884 0.190671 0.101624 -0.185052 -0.113247 0.243503 -0.172766 -0.251435 0.0699901 0.0636793 -0.0627741 0.0867336 -0.185971 -0.135125 -0.0287484 0.390497 0.102394 0.0920427 -0.167681 -0.222738 -0.039076 0.144505 0.219495 -0.188476 0.0652175 -0.0826462 -0.0405351 -0.538032 -0.0664035 0.0374578 -0.0728479 -0.2777 -0.119293 0.0923257 -0.123446 -0.233758 -0.0844285 0.0387502 0.0897745 0.0737191 -0.149956 -0.0381858 0.214276 0.0144798 0.225427 -0.487744 -0.0786042 0.118194 0.343369 -0.044496 -0.0164292 0.36946 0.0149095 -0.214491 -0.091278 -0.167049 -0.0154129 -0.407147 0.18187 0.060049 0.323052 -0.0108954 -0.0233872 0.109363 -0.205032 0.17297
日本 -0.208228 0.00870027 0.0401448 -0.127294 0.0730673 -0.103831 -0.00965413 -0.0929231 -0.0459121 -0.135813 -0.0822939 0.000605539 -0.383572 0.0506996 0.149348 0.15184 0.197825 0.216204 -0.132133 0.02626 0.232438 -0.101472 -0.0133346 0.0115119 -0.0185049 0.157361 -0.259028 -0.0081803 -0.049894 -0.236373 -0.0860033 0.16166 -0.227937 -0.230144 -0.172688 -0.054937 0.13778 -0.0958979 -0.0950928 -0.0350462 0.147008 0.203626 -0.187986 -0.428546 0.0641259 0.238314 -0.130036 0.0668527 -0.233378 -0.227332 -0.217906 -0.226621 0.458406 -0.242121 -0.0532027 0.328285 0.498236 0.0974429 0.353292 -0.281698 -0.21649 0.0839261 -0.158005 0.0601452 0.038058 -0.317512 0.00839368 -0.113816 -0.49752 0.233106 -0.0104266 -0.30367 -0.130343 0.0241224 0.0837638 -0.0321998 -0.0873498 0.0412786 -0.28444 -0.00486308 -0.0434276 0.017944 0.127265 0.183002 -0.18521 0.0960075 0.17702 0.120268 -0.155926 -0.0499642 -0.521941 0.223275 0.365737 -0.114915 0.0801779 0.205183 0.000962489 -0.044542 -0.0955536 -0.223253 -0.0319539 0.0484658 0.0749051 -0.396998 -0.126165 -0.442396 0.126145 -0.124368 -0.361673 0.108236 0.0229659 -0.140303 -0.238589 -0.408374 0.0755786 -0.105186 -0.0609371 -0.178967 0.143485 0.371103 0.0342832 0.0119586 0.07182 -0.221236 0.101014 0.065331 0.156135 -0.0824272 -0.0206494 0.0293238 0.0906658 0.112295 -0.0141644 -0.0403794 -0.29394 0.15851 0.253715 0.153902 -0.12139 -0.0820834 0.219214 0.250087 -0.104146 -0.10859 -0.0040213 0.120989 0.145143 -0.158613 -0.479035 -0.0339742 0.16413 -0.0360913 0.0853972 0.393984 -0.0309129 0.366293 0.194587 -0.0887947 -0.2606 0.153436 -0.123751 -0.304112 -0.00254228 0.321111 0.0266654 -0.0722201 -0.263491 -0.354547 0.0950403 0.112623 0.127771 -0.127316 0.296801 0.258281 -0.0158714 0.165682 -0.245474 0.283499 0.261952 0.608988 -0.30114 -0.133107 -0.122368 -0.0842725 -0.190928 0.0231931 -0.104972 -0.507257 -0.260989 -0.0185069 -0.300441 -0.0269698 0.00680695 0.0162255 0.0640299 0.190743 -0.349309 0.45196 0.0460219 0.0409491 -0.104437 0.0845633 -0.235398 -0.049785 -0.180478 -0.0911248 0.153012 0.234543 0.000140014 -0.0022076 -0.171641 -0.245219 0.0836646 -0.227698 0.51032 -0.189382 -0.13142 -0.165914 0.210303 -0.3869 0.556538 0.456014 0.226649 0.0718807 -0.00239229 -0.160887 0.0935154 0.201308 0.16257 -0.127322 0.119341 -0.170975 0.282888 -0.391682 -0.220127 -0.147123 -0.111454 -0.201494 0.0374588 -0.00730704 0.280547 0.191106 -0.0040636 -0.480408 0.00373615 -0.14762 0.252164 0.296476 -0.0235835 -0.307934
家 0.0309731 0.101561 -0.119199 0.224682 0.14359 -0.125348 -0.0292069 0.49125 -0.305588 0.0654496 0.142954 -0.0980743 0.2703 -0.0228986 0.21204 0.0674138 -0.183016 -0.0694041 -0.144856 0.183733 0.199956 -0.137538 -0.104726 -0.0150784 0.173185 0.120757 -0.235887 0.123944 -0.106741 -0.0377752 0.0861719 0.0384693 -0.0973259 -0.161901 -0.104882 -0.129303 -0.188056 -0.578206 -0.284276 -0.272553 -0.184043 -0.207262 -0.121035 -0.098887 -0.111008 0.117027 0.0315863 0.0758284 0.101552 0.105203 -0.260137 -0.0054509 -0.105875 -0.102411 0.303371 -0.0577125 0.00451141 7.87408e-05 -0.131867 -0.212274 -0.193196 -0.102066 0.0111822 0.306024 -0.0133743 -0.514362 -0.00135097 -0.313681 -0.140475 0.0170184 -0.0738956 -0.0861604 0.0562811 -0.295526 -0.0967223 0.20791 0.095969 0.152112 -0.112846 0.323913 0.206767 0.347656 -0.07999 0.237421 0.333718 0.0437226 0.0432943 -0.156672 -0.313528 -0.225439 -0.444311 0.258669 -0.331792 0.102305 -0.0739749 0.138353 -0.0849839 -0.307301 -0.221955 -0.348787 -0.166991 -0.112797 0.099875 0.0347347 -0.0462595 0.104605 0.247104 -0.209425 0.0792334 0.194203 0.366272 0.151005 -0.0674619 0.239598 0.219619 -0.251363 -0.0337931 -0.375689 -0.327063 -0.23119 0.0988915 -0.297572 -0.1372 -0.56796 0.0823622 -0.103948 0.0152327 0.0746496 -0.061517 -0.326096 -0.390987 0.230756 -0.264902 -0.0214035 -0.0997468 -0.0592873 0.432795 -0.227289 -0.0626617 -0.0789964 0.303461 0.0144315 0.125491 0.102333 0.136103 -0.00708862 0.00613935 -0.250726 0.00801824 -0.120944 0.25274 -0.153134 0.163762 -0.161549 -0.0465542 0.245064 0.0688386 0.498625 -0.0994619 0.213956 -0.444376 -0.331641 0.192221 -0.193626 -0.0980546 0.0487253 0.312196 0.159573 -0.172768 -0.082699 -0.104412 0.160955 0.15726 -0.146074 0.0183054 -0.0394594 0.113286 -0.165909 0.102068 -0.0773604 -0.447769 0.424098 0.17423 -0.0594241 0.103065 0.0674567 0.315339 -0.305414 -0.316921 -0.310402 -0.262316 0.113224 0.0122993 -0.426778 0.13827 0.148048 0.0305063 -0.0100586 0.0425216 0.0106617 -0.0398382 -0.200863 -0.118116 -0.358243 0.0272184 0.20423 -0.208824 -0.0274987 0.140776 -0.0522562 -0.0819295 -0.0573952 -0.190736 -0.278361 0.306121 -0.301977 -0.182887 -0.135552 0.302955 -0.375327 0.00498371 0.118541 0.354176 0.160691 -0.128902 -0.399839 0.122841 0.142176 0.269422 -0.340257 -0.0332712 0.127284 0.139812 -0.0994926 -0.168909 0.171358 -0.0119442 -0.166303 0.0869179 0.222671 0.0985291 -0.182729 -0.314188 -0.343666 -0.20784 -0.0475018 0.663213 0.2895 0.209809 -0.0962245
錢 -0.248322 -0.17917 0.269455 -0.255562 -0.501378 0.0224587 -0.00552835 0.0585313 -0.106221 -0.255983 -0.285536 0.154183 0.324235 0.0589881 -0.0380951 0.178064 -0.367524 -0.151386 -0.300662 0.271688 0.28971 -0.051815 0.18024 0.179086 -0.0522995 -0.23706 -0.149514 0.0953807 -0.269927 0.0864161 -0.101661 0.300042 -0.154424 -0.0565461 0.422536 -0.169957 -0.304319 -0.236162 -0.0221694 -0.331225 0.208263 0.0588633 0.0790959 0.107337 -0.136751 -0.0146707 -0.138471 0.0666148 0.177366 0.231866 0.0029581 -0.218385 0.464057 0.0221973 0.190913 0.263544 0.121165 -0.38554 0.00995299 -0.251945 -0.178398 -0.142133 -0.0780418 -0.14796 -0.236041 -0.278808 0.0219359 0.278822 -0.093552 0.166186 0.0226504 0.0096006 0.0288206 -0.00699515 -0.174707 -0.0455443 -0.078762 0.225341 0.210256 0.126968 -0.108806 0.150118 0.254526 -0.0725754 0.0142051 0.0490832 -0.267552 0.187414 0.0102163 -0.378245 -0.252087 0.299619 -0.263464 -0.246723 -0.226271 0.0522931 -0.322967 -0.00282512 0.390466 -0.277725 -0.186241 -0.210768 0.111862 -0.0939817 -0.0164238 0.115298 -0.0611836 -0.0767606 0.0675791 0.104259 0.165387 -0.118875 -0.114158 0.0524496 0.147288 -0.311168 0.0622395 -0.0253368 0.0956796 -0.139064 0.0887901 -0.292942 0.0813224 -0.242228 0.135867 0.0809165 0.213865 -0.339249 -0.0938176 -0.041974 -0.249948 0.0162488 -0.251204 -0.106266 -0.139995 -0.0116514 -0.0302648 0.380318 -0.0965656 0.141641 0.21185 -0.303243 -0.0410047 -0.0674144 0.0461726 0.0679997 -0.251067 -0.139918 -0.20119 0.32846 0.0373935 0.0723865 -0.0753878 -0.327573 -0.0438902 -0.027326 0.147153 0.115779 0.141236 -0.330219 -0.224487 -0.228203 0.366629 -0.129834 -0.143008 -0.028761 -0.296498 0.0230566 -0.0230797 0.321663 0.13375 0.173502 -0.317138 -0.0832707 0.0882605 -0.105151 -0.27008 0.0182361 -0.0915729 0.150143 -0.292596 0.250058 -0.0756433 -0.0492236 0.24864 -0.100809 0.251192 -0.23511 -0.388713 0.134237 0.311114 -0.0264369 0.208192 0.165554 -0.199072 -0.137496 0.0350105 -0.0918152 0.339732 -0.0495647 0.101856 -0.0982518 0.0228831 -0.409981 0.100765 0.0757497 0.204635 0.0256318 -0.0701362 -0.140703 -0.133794 -0.338233 -0.0800705 -0.679531 0.335241 -0.112133 0.181674 -0.409419 0.118421 -0.1278 0.0527829 0.117349 0.0493396 -0.147823 -0.119894 0.17649 0.0752498 0.136859 0.371745 0.0285673 -0.112332 0.0412668 0.030051 -0.0988222 -0.307253 -0.0506212 -0.0907564 -0.318029 0.0124012 -0.0766448 0.235598 -0.309434 -0.0287655 -0.532351 0.372889 0.327099 0.40911 0.407843 0.249711 -0.0533998
噓 0.0660933 -0.0898112 -0.102985 -0.301135 -0.403382 -0.02821 -0.121676 -0.374204 0.0446674 0.262028 0.157956 0.0973434 0.003831 -0.165737 0.2134 -0.104753 0.164673 -0.137958 0.274494 0.113944 0.476351 -0.355435 0.407972 -0.0367756 -0.0626137 0.0172044 -0.169017 -0.114328 -0.362052 -0.0399114 -0.0895501 -0.154417 -0.207868 -0.110186 -0.071205 0.116466 -0.188874 -0.0734019 -0.104588 -0.0392155 -0.201206 -0.04724 0.134678 -0.0362709 0.161843 0.207861 -0.177079 -0.084628 0.345261 0.109405 0.160208 0.180898 0.32845 0.0573195 0.352647 0.25207 -0.00634016 -0.103891 0.37022 0.211049 -0.495437 -0.0363071 0.117662 0.224365 -0.313086 0.129167 -0.174052 -0.0355409 0.286584 0.280264 -0.107543 0.293948 -0.0813883 -0.0105281 0.224021 -0.0412583 0.24562 -0.0758615 -0.0102439 -0.0137527 -0.228621 0.308479 -0.0257781 0.245297 -0.0707911 -0.216552 -0.371295 0.342054 -0.299779 -0.1157 -0.083795 0.438619 -0.0548759 -0.0476839 0.0415128 0.104002 0.212169 0.133536 0.296975 -0.423026 0.100142 0.0394161 0.0703372 0.0795417 -0.0162719 0.0464493 0.209755 -0.297901 -0.308509 0.10973 0.242772 0.141535 0.337064 0.0559161 -0.0475728 -0.262507 -0.288797 0.0733389 0.464818 -0.286726 0.322761 -0.289196 0.221584 0.218259 0.122393 0.0499474 -0.0214111 0.0845589 0.0490481 -0.279963 -0.410444 0.100287 -0.234944 -0.034217 0.224293 -0.135529 0.18319 0.019763 0.00691257 -0.145 0.477385 0.0163232 0.0573938 -0.415402 -0.377003 -0.0649833 0.100273 0.193482 -0.312344 -0.118347 0.340456 -0.0730192 -0.271686 -0.163605 -0.182817 -0.242779 -0.0486043 0.189258 0.0180045 0.0136725 0.0143804 -0.0695722 -0.00291719 0.463687 0.147994 -0.173902 -0.0580322 0.119867 0.220549 0.227543 -0.211543 -0.151074 -0.213295 -0.267891 0.1217 -0.150784 0.0869958 -0.043256 0.20342 -0.225683 0.00595126 0.596188 0.0252036 0.0569566 -0.114206 -0.0107149 0.0351035 -0.0581942 -0.241268 0.136725 -0.170949 0.268698 -0.101278 0.0217051 0.0755547 -0.0906955 -0.256039 -0.10458 -0.140094 0.218358 0.0921142 -0.0983632 -0.110632 -0.26222 0.0898649 0.128627 -0.0473804 0.0348396 0.159226 0.206357 -0.202765 0.137007 0.171888 -0.295815 0.209899 -0.0391922 -0.0804024 -0.419459 0.0420711 -0.373865 0.122472 0.339376 0.0351905 0.06947 -0.0187895 0.393798 0.0516106 0.0662656 0.373881 -0.264358 -0.167494 -0.0441505 0.0925162 -0.202753 -0.134369 -0.457574 0.154293 -0.413403 -0.0103894 -0.101838 -0.0841971 -0.23383 0.312788 -0.598162 -0.00702961 -0.343658 -0.0316703 0.145482 -0.107908 -0.222386
地 -0.241297 -0.206175 -0.148518 0.319558 0.0754878 0.176033 0.233697 -0.353828 -0.0933283 0.0107099 0.0116821 0.290325 -0.408548 0.203637 0.018675 -0.322369 -0.0316151 0.227052 -0.292405 0.136733 0.0959584 0.134639 -0.374879 0.183595 -0.114999 0.37864 -0.26362 -0.244402 0.0891153 -0.242342 0.0825764 0.161305 0.0609192 -0.476792 -0.200152 0.189012 -0.126726 -0.102093 0.154087 -0.349178 0.0697957 -0.0709799 -0.224979 0.22089 -0.360742 0.064786 0.209783 0.0642589 0.230272 0.0737693 -0.207127 -0.108366 0.256144 -0.516687 0.00913407 0.233133 -0.0738068 0.194079 0.368346 0.0943704 -0.27739 0.299956 -0.0363795 0.0768859 -0.0958257 -0.341622 0.273632 0.0615426 -0.41395 0.113188 -0.0830552 0.104895 0.0973856 0.183221 -0.286313 0.00130627 0.109817 0.139606 -0.303776 -0.0966303 -0.0571923 -0.0769638 -0.0120232 0.0477778 0.313246 -0.247943 -0.165726 -0.450149 -0.0458135 -0.123292 0.0147075 0.0744993 0.232837 -0.225991 0.29668 -0.219466 0.0655031 -0.00738034 -0.0495186 -0.357069 0.333272 -0.0962729 -0.144171 -0.0788032 -0.134774 0.158729 -0.0658683 -0.0136689 -0.35969 0.320135 -0.137013 0.122921 -0.223262 -0.0918152 0.429518 -0.528469 -0.596762 -0.467641 0.518827 -0.19511 0.0290581 -0.537046 -0.0316172 -0.42092 0.0281216 0.0153905 0.0276253 -0.0985768 -0.199104 -0.0375591 -0.228571 0.21788 0.142486 0.0821046 -0.531116 -0.12373 0.377874 0.388549 0.044945 0.293394 0.259107 -0.233163 -0.220281 0.223851 -0.246243 0.0693555 0.000895207 0.116221 0.529436 -0.114041 0.261477 -0.0762335 0.535589 0.105184 0.0574558 -0.0480239 0.127716 0.339928 0.059973 -0.324694 -0.211058 0.0269375 0.133461 -0.103982 -0.043433 -0.00948458 -0.0603139 -0.18989 -0.0688977 0.463521 0.142663 0.159627 0.571216 0.054593 -0.0788428 -0.0798278 0.193034 -0.176482 0.0120442 0.149924 -0.00627165 -0.0319692 -0.396476 0.144494 -0.0381421 -0.54709 0.115251 -0.205584 -0.0247391 0.192264 -0.070967 -0.147252 0.24675 -0.164124 0.334678 0.0445352 -0.170935 -0.228198 0.101233 0.454474 0.0077558 0.109453 0.0234486 -0.0310186 0.0305731 0.0107857 0.21388 -0.0213538 0.222938 0.00440013 -0.209985 -0.164836 0.042452 0.271051 0.0170666 -0.171595 0.0255133 0.049831 0.0394473 -0.240491 0.14217 0.437059 0.355756 -0.0992609 -0.141663 -0.100643 0.465252 0.11395 0.207101 0.116171 0.128777 -0.0985532 -0.339128 0.0572176 -0.248795 -0.15188 -0.0911806 -0.0195333 -0.439478 -0.0436673 0.364425 -0.0976071 -0.0337237 0.159296 -0.0572543 -0.30019 0.477534 0.208568 -0.286025 0.0894102
台北 -0.00458747 -0.521128 -0.0195444 0.119501 0.218852 0.145449 0.112254 0.0759756 -0.224849 -0.0657402 -0.394371 0.104909 0.058302 0.147824 -0.112514 0.268651 0.190673 0.222454 -0.0919885 0.0353122 0.534085 0.0668629 0.0137697 -0.0472581 -0.0226319 -0.0119493 -0.0746587 0.509864 -0.243286 -0.160229 -0.515637 0.307808 -0.211112 -0.125951 0.216688 0.0598065 -0.202711 -0.172175 -0.178434 -0.112717 0.219528 -0.0873596 -0.308105 -0.122876 0.134835 -0.190402 0.0448605 -0.0979226 0.0807556 -0.0179125 0.111048 -0.13245 0.108941 -0.221609 -0.106182 -0.0691322 0.0391263 0.0640385 0.0992736 -0.116141 -0.0782257 -0.00375526 -0.0785979 0.0851236 0.14838 -0.31575 0.200988 -0.00192928 -0.296598 -0.0361451 0.142054 0.292377 0.00160856 0.276839 0.0308599 0.494897 0.304245 -0.0691978 0.0469014 -0.0355892 0.00506491 0.182968 -0.0173343 0.556947 -0.280971 0.0408951 0.248958 -0.0383891 -0.131108 -0.0136928 -0.252074 0.011408 -0.204898 -0.00010753 -0.169415 0.254185 -0.23255 -0.171414 -0.0194835 -0.249322 0.0894623 -0.10861 0.0249917 0.134751 -0.221137 0.0545283 0.147119 -0.0289826 0.162255 0.0535617 0.0432346 0.119604 -0.343931 -0.230318 0.27051 -0.422308 -0.603849 -0.141715 0.372153 -0.420211 -0.124905 -0.0108492 -0.093566 -0.141001 0.286892 -0.109062 0.343944 0.178044 -0.0524908 -0.113244 -0.00623661 0.215374 -0.0194015 0.224116 -0.0928558 -0.112117 0.352704 -0.0435732 -0.121124 0.309894 0.250104 -0.110892 0.207075 0.246545 -0.214678 0.258725 -0.0600482 0.243333 -0.31624 -0.222455 0.0145662 0.230605 -0.291195 -0.0314507 -0.00867247 0.0209849 0.0981524 0.33984 -0.167795 0.248505 -0.0763228 -0.169739 0.0334474 0.141639 -0.293918 -0.0996628 -0.290091 -0.18888 -0.356812 0.108867 0.128945 0.368931 -0.011306 0.00171658 -0.0253731 -0.171413 -0.10821 -0.232881 -0.0804943 -0.0586718 -0.253313 0.648072 0.278805 0.113391 0.154856 0.0058178 0.147487 -0.175494 -0.470668 -0.0982794 -0.269819 -0.0823986 0.254732 -0.103488 0.168577 0.0195955 -0.207277 -0.0857727 0.260845 0.0125683 -0.0339362 0.0569081 0.297633 -0.18073 0.145993 -0.106739 0.123396 -0.197065 0.210817 0.302474 -0.0422632 -0.262686 -0.218617 -0.3231 0.370086 -0.376578 -0.222913 -0.23457 0.29853 -0.5086 0.269517 -0.0220884 -0.191832 -0.121327 0.0800845 0.174847 -0.0904631 0.601928 0.294025 0.189155 0.0627353 0.273605 0.258728 -0.18938 -0.0108651 -0.0459418 -0.366868 -0.11786 0.00194143 -0.166605 -0.265566 0.0829878 -0.0525422 -0.168825 0.18566 0.471747 -0.0465824 0.14337 0.412395 -0.182737
電話 0.327489 -0.133252 -0.126264 0.0964071 -0.135093 0.61462 -0.0174333 0.0981699 -0.195323 -0.058243 0.0646946 0.327423 0.0400274 -0.507265 0.212906 -0.0228646 -0.236434 -0.0731164 -0.153044 0.380126 0.262196 0.151169 -0.0250758 0.332657 0.324607 -0.147107 -0.189356 0.282507 -0.139029 -0.261833 0.366746 0.0271405 -0.461968 0.032266 -0.429688 -0.256251 -0.351428 0.00452105 0.00943446 -0.411439 -0.206833 0.0938515 -0.477126 0.231292 0.0574221 0.204885 0.154472 -0.296919 0.395772 -0.114469 0.102336 0.0037246 0.0941049 0.259272 0.341418 0.170397 0.159771 -0.033854 0.254574 0.0530518 -0.564868 0.148648 0.026284 0.313323 -0.138531 -0.435478 0.0600523 -0.109963 -0.398965 0.384017 -0.356237 0.0162745 -0.358852 -0.0687142 0.0526235 -0.08788 -0.171565 -0.0385254 -0.038308 0.256744 -0.2245 0.142529 0.18201 -0.155384 0.121973 0.0310175 -0.111272 0.316636 -0.0299457 -0.155043 -0.194068 -0.0979725 -0.0393907 0.344312 -0.0702255 -0.23797 0.183132 -0.0998584 -0.0340189 0.442287 0.0226744 -0.225721 0.0417499 0.143525 -0.0500731 0.138986 0.0179697 0.0400095 0.320773 -0.133419 0.163909 0.247222 -0.0880207 -0.000484131 0.157038 0.0823167 -0.157579 0.0319098 -0.149784 0.0531665 -0.0480761 -0.318557 0.106639 -0.331013 -0.0457002 0.0151318 0.356305 -0.251861 -0.143611 -0.207878 -0.370549 0.190823 -0.0805677 0.183643 0.000107446 0.0363048 0.169963 0.304581 -0.238839 0.306658 -0.0862269 -0.165384 -0.162295 0.0647396 -0.190202 -0.383686 0.0176373 0.183359 -0.227684 -0.118346 -0.192675 -0.337138 -0.0311232 0.0592285 -0.0318231 0.285561 0.0461311 0.680073 0.224571 0.126895 -0.0890209 0.325046 -0.183026 -0.0104924 -0.0291209 -0.0926699 -0.35352 -0.0851412 0.295913 0.0123293 -0.0188712 0.099611 -0.191531 -0.21412 0.43846 -0.190044 -0.032453 -0.252044 0.040008 0.288393 -0.391446 0.106187 -0.387242 0.141487 0.237662 0.0903015 0.222179 0.0272444 -0.0548536 -0.380556 -0.096415 -0.28319 0.00630278 -0.0223319 -0.322072 -0.10695 -0.13825 -0.177388 0.223405 0.174655 0.256716 -0.056549 0.259962 -0.290621 -0.154782 0.155517 -0.285498 -0.19623 0.403547 -0.0296873 -0.933737 0.0446741 0.123141 0.030876 0.441532 -0.366754 0.163609 -0.117064 -0.0700349 -0.258585 0.328539 0.329251 -0.0721948 0.105539 -0.137985 -0.646422 0.392702 0.431791 0.091001 -0.397039 -0.420832 0.367169 0.245768 0.136116 0.21623 -0.238855 -0.126008 -0.0558837 0.12563 0.243339 -0.246687 0.295579 0.392462 -0.131389 0.192132 0.0665658 0.220183 0.116799 -0.179664 -0.188459
寫 0.163871 -0.40056 -0.0178255 0.0828062 0.0673884 -0.0797563 0.219908 -0.201872 0.144611 -0.180879 -0.0283009 0.103541 0.0510231 0.0634757 -0.155092 -0.0746964 -0.247241 -0.320508 -0.182884 0.375191 0.0783279 -0.0286743 0.472892 -0.0802837 0.0882633 -0.0659118 -0.0826359 -0.0021439 -0.132002 -0.0176775 0.134456 -0.127621 -0.205106 0.0652652 -0.00660252 -0.20664 -0.199708 0.0122219 -0.327136 0.0330839 0.145976 -0.203049 -0.477063 -0.189051 0.148773 -0.033825 -0.168113 0.106903 0.256918 0.124389 -0.161914 0.166196 0.322445 -0.0609896 0.145729 0.515112 0.101637 -0.36344 -0.081427 -0.0342394 -0.399067 -0.300294 0.0329281 0.124938 -0.223763 -0.169736 -0.0952726 -0.0935232 -0.0790122 0.472529 -0.0856436 0.0241884 -0.00598792 -0.213535 0.333682 0.178971 0.107624 0.0239573 0.0741954 0.0480364 0.123986 0.157629 -0.118947 -0.0156777 0.425592 0.260945 0.0500054 0.0201979 -0.0338924 0.197524 0.049023 0.326172 -0.545062 -0.169807 0.0307747 -0.290211 -0.248801 0.120714 0.0523454 -0.354767 -0.07596 0.324193 -0.108313 -0.310755 -0.15951 0.148622 0.0219841 -0.263765 0.131347 -0.00189246 0.0847574 -0.137544 -0.304872 0.0718194 0.0436744 -0.00125858 -0.0637813 -0.0410571 0.257905 -0.0944753 0.14012 0.00992781 0.238215 -0.179457 0.468638 0.0679824 0.159577 -0.0164065 0.35546 0.352223 -0.0385253 -0.140209 -0.00217442 -0.0703247 0.0704832 -0.0106192 0.110867 0.194211 -0.151512 0.185815 0.00679738 0.248528 0.319611 -0.255686 0.056882 0.299309 0.478094 -0.0321798 -0.0490509 0.0303384 0.172918 0.0161225 -0.233006 0.0247581 -0.27091 -0.340514 -0.052622 0.466222 0.0742076 0.148431 -0.208606 -0.11373 0.0480909 0.163884 0.356104 0.0895003 -0.233983 -0.260166 -0.11897 0.0392427 -0.102572 0.391706 0.528374 -0.0223621 -0.0105482 -0.407317 -0.269114 0.169438 0.00433788 0.172949 -0.222467 -0.115567 -0.0866306 0.0894841 0.144026 0.110078 -0.311054 0.16796 -0.0882662 -0.173916 -0.101688 -0.0995798 -0.0623232 -0.186576 0.11828 -0.0110529 0.0155519 -0.177671 0.208755 0.271029 -0.05138 0.0925194 -0.222869 -0.266819 0.052121 0.0790926 -0.254975 -0.127524 0.119578 0.23159 -0.099825 -0.020072 -0.0490496 0.0103679 0.24045 -0.00978155 -0.0368609 -0.152034 0.259178 -0.215359 0.153161 -0.0251811 0.233986 -0.148562 0.100864 0.389074 0.173666 0.0788656 -0.14965 -0.446446 -0.233292 0.15954 0.439727 -0.261431 -0.0823602 -0.3251 -0.00432051 -0.00333361 -0.0246855 0.104633 0.226856 0.141626 -0.00485181 -0.502148 -0.258872 -0.0834231 0.493163 -0.0414417 0.121863 -0.262729
女 -0.202984 0.536569 -0.140643 -0.350107 -0.182862 0.0978353 -0.120722 -0.00535693 -0.304623 0.255475 -0.0254012 0.343211 -0.0896481 -0.279369 0.0716247 -0.266483 -0.214971 0.390457 0.122049 -0.0780784 -0.14085 0.0446509 0.164856 -0.0655333 0.194212 -0.256287 0.0330266 -0.215486 -0.205713 -0.170014 -0.204141 0.350922 -0.260194 -0.247141 -0.066175 -0.0710515 -0.0741353 -0.0488697 0.0368703 -0.277394 0.262126 -0.147597 -0.045492 0.172012 0.1985 0.200046 -0.179535 -0.136864 -0.143347 -0.149801 -0.0275942 0.130626 0.153078 -0.341358 0.367023 0.347921 0.0202129 -0.327258 0.0382417 0.0479015 -0.320126 -0.306858 0.00677276 0.159467 -0.41126 -0.427138 -0.0820112 0.19421 -0.0137104 0.144774 0.0881528 0.316674 -0.0121977 -0.0266384 -0.106332 -0.106724 -0.0131892 0.265541 -0.10124 0.165894 -0.0323355 -0.122759 0.0244662 -0.132796 0.254493 -0.224932 0.119158 -0.115533 -0.181319 -0.297978 0.167636 0.235711 -0.301995 -0.350108 0.303418 -0.0610024 -0.207139 -0.168391 0.139379 -0.274765 -0.399796 0.137972 0.259649 -0.409074 -0.269306 -0.0348495 0.205626 0.0562042 -0.0997284 0.08387 -0.386745 -0.0946813 -0.284267 0.223845 0.177516 0.0981681 -0.203519 -0.114987 0.301621 -0.0366291 -0.243521 0.298338 0.0266381 -0.263947 0.228542 0.0728928 0.277052 -0.0785899 -0.121836 -0.394116 0.0280312 0.315077 -0.177685 -0.00703683 -0.153243 -0.269686 0.363188 -0.0344788 0.0655536 0.0478557 -0.222987 -0.30815 -0.0505618 -0.045234 -0.133698 -0.307086 -0.0678286 0.0716472 -0.239456 -0.296233 -0.160321 0.0719873 -0.0755956 -0.00229889 -0.101096 0.257059 -0.00987668 0.230547 -0.00165446 0.0724266 -0.201695 0.346979 -0.196634 0.187264 -0.0651022 0.28966 -0.203661 -0.174526 -0.246117 0.210907 0.21546 0.417553 0.0979644 -0.149827 -0.166321 -0.222742 -0.0691951 0.0962446 0.179863 0.20899 -0.441329 0.120041 -0.175781 0.0934504 -0.101561 0.0421153 0.0844138 -0.144661 -0.241492 -0.0677854 -0.14064 -0.0711499 -0.0276192 -0.154946 -0.453202 0.05783 0.224989 0.0366354 0.183629 0.318267 0.440279 0.173268 0.0610844 -0.322208 -0.0157818 0.225069 -0.290838 0.148972 0.387754 0.581341 -0.381396 0.0799296 0.00439325 0.05167 0.234312 0.0100795 -0.233351 -0.0782624 0.0628041 0.160488 -0.121665 0.757955 0.0124762 0.0311706 0.208693 -0.225402 0.262712 -0.10188 0.335451 -0.0895689 -0.116052 0.0487948 0.418969 -0.0182191 -0.244076 -0.153086 0.206389 -0.0443291 0.0741398 -0.153741 0.145414 -0.334532 0.161203 -0.130734 -0.30772 0.103843 -0.174714 0.209783 0.0997222 -0.296376
聽 -0.105567 -0.324014 -0.00686404 -0.158578 -0.153016 -0.0237867 -0.23372 -0.448845 -0.183531 0.222775 -0.267587 0.172656 0.0919135 0.0180278 0.24884 -0.107131 -0.423104 -0.225273 0.0175155 -0.00257713 -0.0412117 0.152255 0.306196 -0.211099 0.0157053 -0.149045 -0.329145 -0.0804763 -0.0892147 -0.183679 -0.0397713 0.148192 -0.18652 -0.0635766 -0.090844 0.117578 -0.0765442 -0.105704 0.106722 0.0371259 0.0423062 -0.071636 -0.336166 0.104246 -0.20096 -0.0130351 -0.139187 0.085417 0.0775417 -0.115123 -0.00315059 -0.0416812 0.303291 -0.101552 0.122511 0.408026 0.00665476 -0.0633708 -0.0611179 -0.0691592 -0.145907 0.0380245 0.119057 0.255974 0.0438527 -0.264314 -0.0215414 0.0212312 -0.393352 0.464376 0.075776 -0.282134 -0.151695 -0.212798 0.109086 0.107198 0.00628063 0.0613682 0.137951 0.308623 -0.206649 0.12392 0.4233 0.177501 -0.139327 0.112468 -0.157719 0.279212 0.0160773 0.0128352 0.0122568 0.221913 0.270571 -0.0514029 -0.0840445 0.0161599 -0.256359 -0.196467 0.178285 -0.575698 0.132442 0.14048 0.137312 0.096644 0.0725889 0.229661 0.140603 0.106195 0.389685 0.118854 -0.214823 0.453709 -0.0108243 0.134297 -0.230167 0.0420041 -0.414951 -0.0576796 -0.0257798 -0.0355295 0.0769342 -0.114333 -0.222521 -0.148246 -0.196906 0.218437 0.22237 -0.196192 0.0299881 -0.0489879 -0.217749 0.31296 -0.257186 0.48177 -0.321743 0.0737726 -0.0389965 -0.131784 0.111129 -0.0519805 0.185221 -0.092136 0.0641264 0.0182236 -0.0340672 0.562619 -0.273387 0.172171 0.225464 -0.172465 0.357857 0.283675 -0.153323 -0.288934 0.114091 -0.117019 0.265666 0.694193 0.267097 0.10077 -0.193677 0.273391 0.309496 0.0741216 -0.0273117 -0.384791 -0.314168 0.110266 -0.220099 0.00485666 -0.0529924 0.281354 -0.00232667 0.260374 0.135424 0.117654 -0.0656898 0.091041 0.1809 0.258709 -0.0793493 -0.252962 -0.22184 0.00855234 -0.130885 -0.114961 -0.00697989 -0.361657 -0.0399705 0.00318214 -0.310297 0.236743 -0.199024 -0.361182 -0.201364 0.0153847 -0.22402 -0.22068 -0.0591352 0.289734 0.142308 -0.073022 -0.313224 -0.184107 0.2204 0.00167965 -0.196333 -0.163628 -0.134171 0.194018 -0.503507 -0.323632 0.108169 0.00609703 0.326294 0.0764162 -0.405882 -0.128932 -0.00600757 -0.511902 0.335523 0.0160471 -0.24937 0.0369563 0.0196982 0.170844 0.472855 0.248803 0.153762 -0.21555 -0.0160852 0.227658 0.0775669 0.0412436 -0.0502911 -0.0863859 0.351763 0.0145878 0.446452 0.162082 0.184226 0.255493 0.0359255 -0.235372 0.215461 -0.0675602 0.215332 0.0575013 -0.190071 0.435196
女友 -0.285077 0.34543 0.0440291 -0.0565977 0.00305161 0.121784 -0.0491747 -0.128539 -0.45807 0.225471 -0.159463 0.191515 0.100773 -0.2381 -0.178517 -0.162472 -0.220176 0.329621 0.108977 0.345117 0.0889393 -0.0739351 0.0600404 0.046165 0.0272325 0.035939 0.108035 0.151909 0.0443008 -0.13517 -0.0753573 0.297495 -0.256735 0.107566 0.294777 -0.0495523 -0.120771 -0.053541 -0.0239059 -0.0513125 0.103075 0.00810984 -0.0804565 -0.0353818 -0.11921 0.0101683 -0.103507 0.222046 0.0278512 -0.0392525 0.201677 -0.018445 -0.140693 0.0789081 0.434062 0.0861685 0.353834 -0.270094 0.207096 0.0676742 -0.326826 -0.281812 -0.0287204 0.0955648 0.182217 -0.183812 0.0361927 0.494206 -0.349833 -0.170053 0.0204251 0.207717 -0.215916 0.215068 0.113909 -0.0133557 0.187049 0.348815 -0.49051 0.108233 0.00131892 0.0994141 0.114915 0.137272 -0.057449 -0.275955 0.263786 0.00197799 -0.131467 -0.0075063 -0.147837 -0.0509276 0.0269831 -0.168782 -0.00160075 0.0254317 -0.0908067 0.0493803 0.0554067 -0.228071 -0.0543754 0.00888664 0.177589 -0.282349 -0.253012 -0.367051 -0.123997 -0.280253 0.167839 -0.213819 -0.0876038 0.104418 -0.250862 -0.0276442 0.191147 0.0496114 -0.0687523 -0.305861 0.133206 -0.175936 0.376778 -0.121724 0.146878 -0.266485 0.279382 -0.174763 0.122771 0.153171 0.203656 -0.29225 -0.0945842 0.354142 -0.271548 -0.157093 0.0792042 -0.00694718 0.375819 0.246295 0.162883 0.169315 -0.00557702 -0.131169 -0.0776592 0.0723934 -0.203683 0.14966 0.189247 -0.111168 0.0558503 -0.199292 0.124874 0.178777 0.174214 0.0744418 -0.294827 -0.00236808 -0.00930063 0.196637 0.149909 -0.12225 -0.118494 0.185681 0.119715 0.00245691 0.100359 0.105596 -0.145132 -0.123512 0.025839 -0.041224 0.163064 0.250961 -0.150564 0.0208656 0.0111807 -0.472477 0.0335988 -0.405025 0.0854186 -0.170948 -0.0936889 -0.127939 0.0299283 0.167385 -0.102718 0.0206916 -0.275634 -0.561001 -0.106162 0.268212 -0.0860116 -0.113272 0.0103452 -0.27061 -0.568949 0.0745422 -0.0846792 -0.241657 0.00408914 0.181749 0.51681 -0.00116526 -0.0356165 -0.202814 -0.112965 0.116897 -0.234002 0.0474497 -0.00722646 0.0374162 -0.431842 -0.0443567 -0.358356 -0.0846315 0.530091 -0.0164744 0.0606388 -0.18374 0.31323 -0.0116241 0.176063 0.435986 -0.0650234 -0.0977321 0.146008 0.133325 0.349603 0.00964819 0.222761 0.0901407 -0.3605 0.0499523 0.0910023 0.0484223 -0.106036 -0.0628069 -0.024878 0.0331686 0.0727435 0.0700807 -0.00984728 -0.170279 0.0579433 -0.202932 0.125029 -0.179119 -0.176825 0.413204 -0.184983 -0.021988
男 -0.197742 0.805026 -0.0642507 -0.443437 -0.117579 -0.0561708 -0.0731126 0.0512512 -0.157525 0.128011 0.0483214 0.323142 -0.0573674 -0.290099 -0.00931247 -0.205106 -0.20262 0.335859 0.0974508 0.249627 -0.10889 -0.0210907 0.246748 -0.182548 0.0280391 -0.208705 0.107442 -0.115649 -0.0419598 -0.279877 -0.270549 0.293161 -0.351743 0.0331576 -0.197191 0.14953 -0.0682894 0.0128891 0.112276 -0.0297369 0.252195 -0.129992 0.0192453 0.225515 0.00719963 0.112394 -0.102408 -0.0330116 -0.205371 -0.0753415 0.110992 -0.0438973 0.10816 -0.346881 0.270406 0.380454 0.0156962 -0.151156 -0.00620424 0.00801242 -0.488253 -0.372018 -0.156116 0.0424324 -0.323746 -0.445783 -0.257743 0.189611 -0.0301546 0.107112 0.0970493 0.036777 0.069681 0.143468 -0.40047 -0.104476 0.12802 0.05006 -0.141894 0.0929745 -0.143586 0.0542647 0.166953 0.0198641 0.291875 -0.0162667 0.0828916 -0.244269 -0.206436 -0.117077 0.0972159 0.230689 -0.135198 -0.213603 0.0097159 -0.0299696 -0.301911 -0.242888 -0.0474564 -0.171694 -0.240782 0.126197 0.195339 -0.630601 -0.232846 -0.120774 0.233119 0.0117583 0.0882022 -0.130264 -0.315612 -0.0216065 -0.15499 0.153851 0.299872 0.0403822 -0.240141 -0.0960005 -0.0276011 -0.0802502 -0.103505 0.0516946 -0.00524014 -0.409155 0.0808595 -0.0705457 0.292691 -0.00270629 0.13303 -0.402001 -0.076592 0.157472 -0.106582 -0.142176 -0.141808 -0.407011 0.26699 -0.174963 0.0259937 0.155378 -0.230207 -0.357059 -0.0645735 0.202653 0.0513202 -0.159079 0.10771 0.0557029 -0.162282 -0.185944 0.0524235 -0.226634 -0.0110597 0.0498562 -0.269722 0.258066 -0.384212 0.15066 0.0350435 -0.141416 -0.0794008 0.294721 -0.143431 0.0733957 -0.062453 0.214156 -0.262461 -0.347597 0.0597627 0.210466 0.257598 0.312179 0.0148659 -0.324461 -0.0841767 -0.484598 -0.0694343 -0.11114 0.134164 -0.0585744 -0.257948 0.186317 -0.141778 0.165935 0.0774974 0.169022 -0.0719379 -0.252692 -0.194224 -0.108696 -0.188604 -0.364747 0.0447928 -0.29239 -0.468485 0.143307 0.222556 0.227839 -0.060272 0.484678 0.275189 0.102011 -0.0186985 -0.202056 -0.203295 0.125954 -0.155827 0.336324 0.113948 0.350009 -0.262483 -0.117754 -0.0461856 0.0649593 0.287876 0.0799574 -0.327367 -0.262479 0.253971 -0.0280669 -0.0216396 0.645138 0.0255397 0.113761 0.278271 0.0792551 0.416783 -0.217893 0.394956 -0.00104966 -0.204678 -0.0907555 0.486673 0.117371 -0.437441 -0.305128 -0.0349779 -0.0881278 0.156795 -0.103271 0.0970785 -0.171695 0.102331 0.0237348 -0.10265 0.100432 -0.110341 0.132177 0.184579 -0.119266
男生 -0.119063 0.158084 0.406065 -0.121997 -0.00179038 -0.0324572 -0.353896 -0.0959314 -0.12712 0.15099 0.0461452 0.0815057 -0.139316 -0.323966 -0.196416 0.00944652 0.0477638 0.215231 0.136694 0.357869 -0.0299548 0.135849 0.0510408 0.0584552 0.177208 0.074672 0.000167994 -0.295022 -0.139285 -0.0394617 -0.155878 0.451532 -0.240507 -0.246862 -0.0309649 -0.18312 -0.159313 -0.0185079 -0.346681 -0.357574 0.23359 0.0149059 0.00206459 -0.0910123 -0.0456546 0.0738535 0.0564179 0.281285 -0.21313 -0.0248509 0.1193 -0.0055831 0.167364 0.0326839 0.0859326 0.265135 0.349004 -0.281341 0.176668 0.000590799 -0.279483 -0.168942 0.0446706 0.522676 -0.203873 -0.275905 -0.153183 0.176271 -0.183426 0.489 0.00848003 -0.201845 0.124931 0.355414 -0.154032 0.0680169 -0.0944949 0.155176 -0.407828 0.140436 -0.294765 0.142835 0.0729228 0.0997502 0.0897049 -0.145531 -0.057231 -0.0560594 0.207139 0.122289 -0.0579582 0.273452 -0.0935942 -0.294812 -0.146502 -0.353865 -0.138762 -0.107786 0.196087 -0.122659 -0.0895739 -0.0451085 0.0541684 -0.339378 -0.284227 -0.0176814 0.183852 0.0420296 0.135058 -0.220399 -0.0149515 -0.0601397 -0.504284 -0.240454 0.332011 -0.388663 0.0407683 -0.367826 -0.125177 -0.210668 0.00379707 -0.13192 0.246073 -0.354274 0.167129 -0.186674 0.0721116 0.215484 0.177708 -0.300346 0.404095 -0.141239 -0.292556 0.0158953 0.0517116 -0.0591591 0.0573216 0.169906 0.140165 -0.0149678 -0.111742 -0.234133 0.0850506 -0.0372445 -0.146572 -0.14649 0.0691782 -0.185164 -0.166854 -0.279299 0.146511 -0.0804082 -0.168837 0.0795761 -0.435167 0.0326688 0.0473282 -0.297436 -0.154144 -0.0964525 0.0844222 0.164015 0.0727321 -0.107822 -0.176066 0.132212 -0.275417 0.0263756 -0.351134 0.135182 -0.0833041 0.376767 0.17124 0.0663139 -0.212699 -0.162442 -0.0368458 0.028369 0.355226 0.113146 -0.258726 0.146617 -0.140828 0.350585 0.0533797 -0.0417989 -0.291458 -0.327272 -0.201507 -0.23152 0.0854762 -0.0739081 0.147912 -0.142242 -0.391251 0.183347 -0.0470547 -0.159496 0.167695 0.0973156 0.115871 0.0126649 -0.142064 -0.360499 -0.0329954 -0.0572099 -0.228369 -0.059756 -0.183011 0.469917 -0.237354 -0.146886 -0.135807 -0.137787 0.313195 -0.0394797 -0.188436 -0.149875 0.277517 0.00118919 -0.00638597 0.588655 0.0173731 0.357191 -0.12161 -0.0590676 0.265825 -0.0547077 0.427921 -0.076446 -0.160851 0.225022 0.319335 -0.0055034 -0.371163 -0.0245415 0.0434896 -0.0451509 -0.004054 -0.291973 0.124255 0.116886 0.00151912 -0.26546 0.164018 -0.185627 0.0483467 0.386082 -0.11549 0.161629
中國 -0.208959 -0.102 -0.0287665 -0.402886 0.125895 0.028533 -0.0406572 -0.19271 0.072686 -0.0128827 0.112494 -0.264851 -0.261424 -0.0190561 0.0948517 0.0702275 0.237749 -0.0710184 -0.211823 0.0751197 0.234987 0.158151 0.0375154 0.213688 -0.0987646 0.0812033 -0.165676 -0.0726726 -0.186447 -0.256691 -0.015994 0.103801 -0.12454 -0.162556 -0.121169 -0.14373 0.174979 -0.194782 -0.308763 -0.102157 -0.195583 0.0461 -0.462452 -0.0570184 0.27718 -0.0516606 0.0401128 0.181048 0.0428787 -0.0749664 0.19591 -0.0859043 0.386989 -0.411123 -0.0135789 0.227238 0.238947 -0.00550614 0.325304 -0.165252 -0.0161606 -0.127737 -0.281445 0.348134 -0.132468 -0.457958 -0.123198 -0.0414489 -0.221115 0.183026 -0.05309 -0.21252 -0.347414 0.189324 -0.0305202 0.16797 0.211729 0.0907079 -0.199548 -0.00205563 0.390073 0.0340868 0.225925 0.246638 0.163671 0.0701534 0.00551875 0.100057 -0.163299 -0.168632 -0.0583788 0.361246 -0.0937132 -0.0876552 0.0961935 0.167843 -0.118709 0.180196 -5.06463e-05 -0.335852 0.191849 0.0128613 -0.0899268 -0.461192 0.0935187 -0.388639 -0.0133146 -0.089973 -0.299129 0.141608 0.231028 0.132618 -0.223414 -0.326069 0.4403 -0.226642 -0.111178 -0.100003 0.298333 0.00256102 0.00427593 -0.0706206 0.014794 0.0898603 0.0681277 0.0810173 -0.0304228 -0.316639 0.0165563 0.101072 0.0723405 0.122809 0.169126 -0.0378006 -0.183327 -0.116999 -0.0549419 0.0269268 0.0406046 -0.00356234 0.211327 0.228559 0.185182 -0.194829 -0.244322 0.10748 -0.16462 0.0654432 -0.205978 0.160167 -0.0445944 -0.0631632 0.089498 0.140893 0.0765698 0.0554043 -0.0364521 0.224742 -0.0431253 -0.156057 -0.0441458 -0.0861687 0.0415088 0.187482 0.0513656 -0.295461 -0.223737 -0.228477 0.0856373 0.276441 0.321767 -0.124683 0.17297 0.231633 0.0761191 0.127312 -0.329784 0.110692 -0.0967702 0.248437 -0.521018 0.0254821 -0.0337643 -0.0204813 0.0453025 0.127412 0.208465 -0.242605 -0.130426 -0.364943 -0.112689 -0.20123 0.203106 -0.109441 -0.14907 0.229098 -0.159048 0.459076 0.00899598 0.106685 0.206378 0.0956432 0.124855 -0.0469919 -0.107146 0.0812038 0.186111 0.00410771 -0.0361431 0.0383942 -0.231414 -0.360354 0.0423351 -0.194586 0.315004 -0.042246 -0.250889 -0.174924 0.169105 -0.107058 0.474439 -0.0739038 -0.0704028 0.0579151 -0.0561833 -0.198286 -0.0944936 0.297818 0.118146 -0.354531 0.138813 0.106045 0.197413 0.204308 -0.220341 -0.00931715 -0.140015 -0.228553 0.237303 -0.11759 0.315577 0.0186864 0.207924 -0.448317 0.2004 -0.0827187 0.11145 0.285472 0.295968 -0.300539
工作 -0.206134 -0.272581 0.0890586 0.10621 0.172244 0.303593 -0.174727 0.203764 -0.195334 -0.185586 -0.0654545 0.0657031 -0.0711822 -0.0625376 -0.224277 0.0341443 -0.400601 -0.0778645 -0.0412209 0.568256 0.00352735 -0.0274875 -0.127942 -0.157882 -0.0802984 0.162557 -0.147554 0.214147 -0.337304 -0.0914156 -0.272059 0.161407 -0.00397712 -0.296387 -0.0831711 -0.293521 0.149383 -0.186395 -0.16372 -0.303325 -0.0779728 -0.391877 0.0172426 -0.080947 -0.289081 0.0948869 -0.170016 0.27671 0.11961 -0.07167 -0.26384 -0.127599 0.0119034 -0.145509 0.054779 0.193858 0.340398 0.198057 0.207354 -0.107149 -0.555214 0.0138781 -0.0456123 0.160462 -0.282684 -0.298229 -0.276438 -0.0536613 -0.0848698 0.198773 -0.332154 0.242652 -0.0281033 0.256162 -0.147625 0.0985864 -0.332037 0.100132 -0.376649 0.446636 -0.15847 -0.0840246 0.253095 0.228081 0.118539 -0.241059 0.0213269 0.108289 -0.212771 -0.0382013 -0.200766 0.213949 -0.257876 -0.221292 -0.259177 0.201536 0.109062 -0.403928 0.173235 -0.281543 -0.0477771 0.0314779 0.140523 -0.168382 -0.186822 -0.221238 0.00413525 -0.304231 -0.161758 0.148918 0.180002 -0.223378 -0.292369 -0.216018 0.273956 0.011213 -0.246502 -0.0939989 0.00357758 -0.351553 0.102636 -0.379096 -0.0840205 -0.263438 0.111788 -0.395158 0.236459 0.324106 0.160667 0.102747 0.207047 -0.0265852 0.0451685 0.085477 -0.131904 -0.289678 0.0459617 0.240317 -0.0596845 0.406409 -0.0236246 -0.0666719 -0.2157 -0.0529485 0.32789 0.321499 0.110544 0.104042 -0.168052 0.179055 0.0491444 -0.323901 0.05828 -0.341679 0.056374 -0.196319 -0.328361 0.635921 -0.00946725 -0.196154 -0.180373 0.278646 0.170207 -0.0263968 -0.326783 0.04551 -0.174387 0.0911249 0.233931 -0.0976095 0.0605169 0.263838 -0.139459 0.0334978 -0.0846609 0.176645 0.462836 -0.227865 -0.154693 0.122156 -0.241592 -0.107189 0.0563699 0.0789662 0.0414259 -0.208528 0.270199 -0.281646 -0.33994 0.0534325 -0.398609 0.498346 -0.114388 -0.00446909 -0.0143849 0.0393453 -0.310217 -0.0950999 0.434318 0.168876 0.260039 0.0949828 -0.0762665 0.320671 0.325095 0.0372858 -0.164937 -0.103244 -0.0690006 -0.369867 -0.126969 -0.25331 -0.00684288 0.262532 0.24916 0.0987801 -0.241613 -0.16238 0.166111 -0.174569 0.0468318 0.253087 0.0208343 -0.571938 0.139944 -0.0140658 -0.073625 0.121417 0.289302 -0.135516 -0.410076 0.1146 -0.0832504 -0.26176 -0.191707 -0.0258415 0.126165 0.000283931 0.246744 0.00424164 0.0816325 -0.321501 -0.0104607 -0.221571 0.0852104 -0.00629537 0.166658 0.332605 -0.0420049 -0.231278
香 -0.110977 0.188461 -0.0116633 -0.174676 -0.33358 0.247429 -0.0602919 -0.0898959 -0.29148 -0.0187649 0.233163 0.0105495 0.102316 0.0138168 0.152309 -0.166408 0.194382 -0.186823 0.0422156 -0.222189 0.292974 -0.138682 0.203396 -0.0191471 0.111591 -0.547458 0.268618 -0.0349428 -0.035364 0.313246 -0.260555 0.286827 -0.133705 -0.280942 0.336192 0.0750222 0.0185176 0.114594 -0.115158 0.0817854 -0.202658 0.114767 -0.234895 0.0337131 -0.126021 0.0253551 -0.332439 0.159798 -0.0181298 -0.0929121 0.27201 -0.0758718 0.500612 -0.333261 -0.0494131 0.307899 0.0507516 -0.196983 -0.0181539 0.0961293 -0.240781 -0.251223 0.383185 -0.204677 0.16895 0.249549 0.306097 -0.264366 -0.143698 -0.117226 -0.0499287 -0.190087 -0.118715 0.056648 0.121308 0.117933 -0.173993 -0.0562889 -0.262839 0.206279 0.0279023 0.047111 -0.118308 0.0114713 0.124525 0.00252489 -0.0288958 0.0395021 -0.254062 0.168077 -0.386572 -0.190328 0.160682 0.255411 -0.0449905 -0.125966 -0.338664 0.128399 -0.0633331 -0.379145 -0.00782209 -0.224836 0.101371 0.193393 0.239529 -0.16424 0.343483 0.0756189 0.0782585 -0.224126 -0.376001 0.0808942 -0.179886 -0.403935 -0.49673 -0.119414 -0.319306 -0.0611947 -0.153278 0.133609 0.316756 -0.447478 0.139194 -0.25565 0.172916 0.11374 0.141067 -0.20658 0.0931887 -0.40118 -0.249987 0.0621131 0.102929 -0.191334 -0.173757 0.162098 0.481534 -0.0290957 0.0881467 0.1786 0.215355 -0.105564 0.0092426 0.0981537 -0.0816147 -0.0905508 0.537977 0.177796 -0.14206 -0.105192 0.294361 0.432684 0.0615273 0.0939194 0.0873617 0.0358512 0.133351 -0.0767452 -0.0479933 -0.0409065 -0.492535 0.356216 0.512119 0.142899 0.129216 0.287573 -0.246181 -0.201432 -0.365971 0.301358 0.0678761 0.0720341 0.343593 0.0407451 -0.0618769 -0.188438 -0.173198 0.000294156 0.0389955 0.216757 -0.563872 0.219125 0.243903 -0.129872 -0.190314 -0.139209 0.170788 -0.301187 -0.08215 0.0214442 -0.0912137 0.35626 0.115824 -0.246894 -0.0236858 -0.248946 -0.038253 -0.106662 0.100617 0.0179975 0.225609 0.298093 0.053536 -0.139701 0.017859 0.024252 0.108581 -0.186206 0.309423 -0.467523 -0.0462661 -0.114425 -0.294801 0.0462995 0.513752 -0.220362 0.0427057 0.0778436 0.512183 -0.251337 0.185619 0.112649 0.243964 -0.0256437 -0.144366 0.266918 0.125657 0.0795115 0.372154 -0.240881 -0.168743 0.104133 0.587332 -0.135092 -0.44415 0.209395 -0.104393 -0.182106 0.0731441 0.0152478 -0.217709 -0.521956 0.287709 0.0645968 0.324193 -0.137979 0.564507 0.0770321 0.126429 -0.188288
美國 -0.310709 -0.115031 0.0677379 0.0113943 0.123799 0.136103 -0.118939 0.0263348 0.0535271 0.00777187 0.194528 -0.170391 -0.0141961 0.1146 0.0690474 0.339803 0.0039378 0.187515 -0.158343 0.108961 0.185406 0.0148225 0.147798 0.031356 -0.241248 -0.0873906 -0.352838 -0.0476688 -0.0769186 -0.15102 0.0875684 -0.144171 -0.246831 -0.121988 0.0238534 -0.160481 0.072615 0.0131792 -0.241323 -0.123845 -0.0967621 0.0501283 -0.248629 -0.257614 0.0546171 0.148857 -0.0255407 -0.0538552 -0.00714536 -0.029988 -0.0018072 0.0726195 0.308012 -0.30427 0.112455 0.207929 0.282742 0.142985 0.376804 -0.0506985 -0.014891 0.145865 -0.101215 0.23566 -0.150695 -0.570528 -0.223363 0.189683 -0.232095 0.118798 -0.141745 -0.206453 -0.0802723 -0.236638 0.0916027 0.167669 -0.00154069 0.186156 -0.282419 0.143797 0.231018 0.225876 0.217427 0.434974 -0.216029 -0.214378 0.187227 -0.0118592 -0.167608 -0.144679 -0.241866 0.00674494 -0.0331864 -0.227226 0.243779 0.14033 -0.233439 0.0903246 0.0373765 -0.343714 0.206317 0.0576296 0.0318843 -0.0612926 -0.200069 -0.394902 -0.104241 -0.00324992 -0.187176 0.120231 0.268982 -0.204457 -0.167458 -0.362269 0.393142 -0.208264 -0.058277 0.00267425 0.12737 0.0134645 0.0514333 -0.134413 -0.0407252 -0.046123 0.348433 0.0499758 0.240263 -0.160674 -0.164353 -0.153789 0.0390677 0.269289 0.126243 0.0262213 -0.0992781 -0.0583314 0.00885157 0.0803776 0.104573 0.152056 0.163293 0.23871 0.154779 0.0452192 0.028036 0.000573702 -0.324705 0.0497652 -0.275478 0.155293 -0.175141 -0.277427 0.115187 0.0578703 0.070522 0.342689 0.0662824 -0.025883 0.057008 -0.0151145 -0.244274 -0.2021 -0.0860932 0.170508 0.119094 -0.228546 -0.19863 -0.135902 0.122609 0.126964 -0.112948 -0.0666474 0.0181202 -0.00584963 0.162101 0.103929 -0.263978 0.0479862 -0.165898 0.50393 -0.14204 0.0672923 0.210512 0.183838 -0.153371 -0.0517243 0.290108 -0.237861 0.024225 -0.224429 -0.224753 -0.022568 0.0284137 -0.0876689 -0.029763 0.164863 -0.38249 0.406135 0.430403 0.248296 0.156362 -0.139545 0.204576 0.115458 -0.0614492 0.199031 0.192278 -0.269171 0.0980304 0.183288 -0.249805 -0.250407 -0.172969 -0.0967213 0.137582 -0.010702 -0.231404 -0.101303 -0.0179949 -0.363971 0.382321 0.38038 0.104937 -0.184045 -0.426311 -0.0666503 -0.123679 0.516567 0.333504 0.0188231 0.179997 -0.141728 0.0838624 -0.166443 -0.206408 -0.18828 0.0237495 -0.099656 0.0292029 0.0626412 0.313487 -0.0200744 0.168499 -0.595397 0.0941899 -0.0294667 0.190994 0.42457 0.171291 -0.04684
天 -0.143344 0.195574 0.0360377 -0.0367212 0.10642 0.142487 0.135819 -0.16206 -0.135004 -0.0507852 -0.0214166 0.3083 0.179078 -0.278837 -0.131272 -0.0227459 -0.143047 0.280815 0.185054 -0.317289 0.201374 -0.228587 0.134714 0.0488628 0.215625 -0.297747 -0.116751 0.0730186 0.147041 -0.00453665 -0.148048 0.0873177 -0.0742587 -0.123385 -0.231697 0.0978675 0.122369 -0.0665141 0.0725029 -0.0582283 -0.0962957 -0.148799 0.0371705 -0.131845 0.0947914 -0.300568 -0.344222 0.196253 -0.210283 -0.250002 -0.297247 -0.08725 0.0847531 -0.11249 0.227787 0.253521 -0.160024 0.295584 -0.0593584 -0.348851 -0.323631 -0.00815411 0.244046 0.132473 -0.0992776 -0.225805 -0.0922841 0.262959 -0.323598 0.168373 -0.0721692 0.0697918 -0.159247 -0.304779 -0.167394 0.0708552 0.34519 -0.287035 0.12807 0.0331797 0.0437506 -0.273092 0.100413 0.142283 -0.0570228 -0.0774915 -0.32519 -0.109905 -0.419868 -0.0899722 -0.302356 0.36355 -0.497307 -0.235546 0.0969596 -0.0641239 -0.0615482 0.0756957 0.369395 -0.149148 -0.0249785 0.0414771 -0.217717 0.0868062 -0.0378864 0.053088 0.342538 -0.122877 0.0275097 -0.0941299 0.188397 0.151978 0.00840498 0.497443 0.0472628 -0.302243 -0.256141 0.0907419 0.220643 -0.250862 -0.22662 -0.1106 -0.118107 -0.633892 0.197501 -0.151482 -0.0547756 0.344066 0.412963 -0.367754 0.129671 0.0662769 0.0678019 0.321619 0.0902165 0.280508 0.45056 -0.0137403 -0.232278 0.100334 0.13145 0.017973 0.146865 0.0546916 -0.0124164 0.239145 0.0698735 0.0409666 -0.178873 0.434954 0.243778 -0.0909294 -0.212895 -0.145384 0.333894 0.233229 -0.520702 0.216676 -0.0357193 0.174196 -0.202218 -0.0569494 -0.274183 0.237783 -0.231866 -0.154536 -0.141269 -0.404582 0.0698516 0.0671406 0.275741 0.139995 0.208596 0.345908 -0.120679 -0.196033 -0.060824 -0.339571 0.422568 0.0138603 -0.489531 0.1515 0.110658 -0.281746 0.416034 -0.110769 -0.152766 -0.467642 -0.358201 0.359302 0.148631 -0.00385757 -0.0878001 -0.123787 -0.0956027 0.363499 -0.0200141 -0.193311 0.281717 0.0150676 0.0415896 -0.111345 -0.0934227 0.199278 -0.0300805 -0.251741 -0.131444 -0.0328512 0.256102 0.177007 -0.358903 0.0442533 -0.294311 -0.204701 0.364336 -0.30591 -0.147646 -0.131195 0.226109 0.290949 -0.110749 0.275986 -0.0790509 0.0276536 -0.27989 0.0671714 0.257836 0.330899 -0.410897 0.0549756 0.219022 -0.119043 0.313459 -0.136688 -0.116682 -0.0010916 -0.155195 0.153157 0.243604 -0.281328 0.0483958 -0.0224271 0.0239534 -0.165826 0.51911 -0.345467 0.39269 -0.0180108 0.0680045 -0.121922
跑 -0.228446 -0.581324 0.1841 0.144199 0.360063 0.0844593 0.0489879 -0.0697693 -0.33119 -0.117284 -0.14947 0.0806624 0.307895 -0.100706 0.204716 -0.0553891 -0.408662 -0.028821 -0.210781 0.191032 0.428469 -0.246657 0.134171 0.140266 0.00328714 0.112967 -0.537652 -0.028003 -0.217268 -0.0263746 -0.118907 -0.234183 0.222012 -0.259502 0.0237006 -0.153973 -0.142337 0.114993 -0.11216 -0.106296 -0.0104313 -0.10629 0.131148 0.25744 -0.185498 -0.161945 -0.0890749 -0.0536066 -0.0655851 0.222114 0.10547 0.0768647 0.209357 0.0377684 0.370147 -0.182631 0.0952955 -0.256262 0.0199388 -0.113931 -0.020664 -0.0790342 0.245588 0.110848 0.0857687 -0.493973 -0.217798 0.121672 -0.473755 0.30119 -0.0206485 -0.256301 -0.0509189 0.167151 0.108513 0.204462 0.295483 0.0253116 -0.495693 0.22131 0.0166389 0.282112 0.059365 0.0224665 0.0788946 0.00512729 -0.104779 0.198332 0.00235004 -0.124651 -0.051986 0.370952 -0.12247 -0.0647126 -0.0396391 -0.248729 -0.0733652 -0.20488 0.133187 -0.0826 0.290685 0.150804 0.29308 -0.349419 0.070118 0.263333 0.0272335 0.0210131 -0.0690393 -0.109298 0.0057813 0.13317 -0.11315 0.0108458 0.36292 -0.308974 -0.336269 -0.0444186 0.325938 -0.329241 0.235001 -0.408989 -0.165462 0.0318533 0.119462 -0.102384 -0.190954 0.068763 -0.0196868 -0.185454 0.210483 0.124639 -0.0899031 -0.0613259 0.213834 -0.162568 -0.291805 0.22648 0.0696847 0.0336734 0.154316 0.0506236 -0.134191 -0.0771581 -0.00555904 0.0204016 0.00051181 0.263179 -0.102183 0.114495 0.123974 0.263967 -0.132602 0.0445096 -0.249347 -0.169935 -0.28848 -0.0167563 0.236524 -0.10192 -0.281125 -0.152386 -0.0247936 -0.0093139 0.178913 0.0405217 -0.552099 0.0350092 0.00178614 0.155791 0.102445 0.107424 0.198973 0.0970045 0.0462465 -0.0595202 0.0396674 -0.170914 0.135126 0.24089 -0.283707 -0.0799057 -0.108624 0.118261 -0.0748833 0.0240247 0.096645 -0.0975671 -0.244399 -0.118862 -0.189383 -0.0280862 -0.216655 -0.115583 -0.0770268 -0.309055 0.0218079 -0.3355 0.30324 0.419801 0.0906606 0.259562 0.253672 -0.164626 -0.282072 -0.174997 -0.405235 0.0471767 0.215142 0.333724 0.0564752 0.0676259 0.147887 -0.168186 0.154417 -0.302585 0.113633 -0.219016 0.507756 -0.383517 -0.114558 0.152074 0.393723 -0.0793099 0.113125 -0.309848 0.263863 0.0409064 0.0206163 -0.0744104 0.0453712 -0.192723 0.0139606 -0.00201355 -0.202821 0.0405937 -0.172454 -0.017075 0.206166 -0.257298 -0.107642 -0.226079 -0.0251361 -0.444632 0.264504 0.127512 0.244035 0.239773 0.23359 -0.237952
茶 -0.460115 -0.0855606 0.279083 -0.158895 -0.164817 -0.0112538 -0.210351 -0.265375 0.269606 -0.177933 -0.0601605 0.321083 0.179167 0.210617 0.190798 -0.334502 -0.0692601 -0.0684183 -0.339766 -0.24625 0.0872733 0.0791599 0.104954 0.424235 -0.023296 -0.506593 0.14514 -0.159789 -0.055686 -0.024537 -0.232503 0.233322 0.309369 -0.475068 -0.04566 0.157019 0.0392556 -0.117363 -0.256967 0.218358 0.110886 -0.0681431 -0.523114 0.0509773 -0.254169 0.00471481 -0.00921264 0.16836 -0.465933 0.0129205 0.38431 -0.149707 0.193776 -0.309576 0.186251 0.54887 -0.250872 0.757749 0.0987287 0.149975 -0.277348 -0.258221 0.285947 0.139224 -0.338406 -0.219258 -0.163162 -0.251764 -0.396857 0.305414 -0.0539547 0.00392606 0.183562 0.0661598 -0.190066 0.158475 0.139251 0.0686071 -0.418705 -0.106248 0.11184 0.155563 0.0837158 0.420855 0.309403 -0.053499 -0.0790347 0.114317 0.13632 0.252186 -0.273605 0.0112467 -0.149425 0.366065 -0.062193 0.139108 0.131966 -0.0718408 0.238677 -0.239255 -0.267993 -0.340717 0.197904 -0.276642 -0.31794 -0.112697 -0.28587 0.071886 -0.171573 0.0808369 -0.116421 0.0556715 -0.263263 0.183758 0.00821445 -0.0664909 -0.251425 -0.0188963 0.0139103 -0.204618 -0.0743846 0.122593 -0.147882 0.0664665 0.331719 -0.021856 -0.199177 -0.0575554 0.0721374 -0.484519 -0.201617 0.260836 0.256894 0.184901 -0.00640301 -0.127356 0.304178 0.142071 0.250647 0.148164 0.285893 0.197249 -0.429646 -0.227416 0.138312 0.130416 0.223044 -0.194797 0.0358136 0.267219 0.206178 -0.257036 -0.0384929 -0.00224995 0.0596145 -0.128619 0.330415 0.175853 -0.227692 0.164062 -0.222713 0.482655 -0.0361575 0.0195628 -0.0898582 0.358657 -0.156136 0.332112 -0.268979 -0.12088 0.0195106 0.19989 -0.12551 0.154193 0.266462 -0.233903 -0.0393372 0.197938 0.0857615 -0.0820488 -0.509183 0.035562 0.0281192 -0.271467 0.369937 0.186555 -0.0581262 -0.261421 -0.346055 -0.138025 -0.188236 0.282533 -0.600199 -0.152457 0.218241 -0.0350344 0.0800875 0.110082 0.447089 0.212298 0.0169637 0.400615 -0.0164441 -0.0774298 0.188195 -0.482096 0.251575 0.14309 0.000633613 -0.00917889 0.0224794 -0.0951847 0.216945 -0.000482534 0.11067 -0.294738 -0.157101 0.193829 0.265756 0.105005 0.21444 0.423956 0.0469613 -0.0228656 -0.210747 -0.125312 0.138756 -0.29275 0.0833791 -0.768036 -0.0452365 0.468837 0.327655 0.0431686 -0.137676 0.0265688 -0.326554 -0.190752 0.0319473 0.280697 -0.189114 -0.0326094 -0.182426 -0.423389 0.169653 -0.454947 0.619945 0.17347 0.0993514 0.0134352
飲料 -0.215308 0.19694 0.047981 0.0854082 0.0374991 0.226425 -0.181383 -0.190997 0.360989 -0.592748 -0.183066 0.300215 -0.158331 0.180106 0.332375 0.0312826 -0.261332 -0.319802 -0.217514 0.37637 -0.0264002 -0.0381817 -0.080508 0.26317 0.0918726 -0.184701 -0.239689 -0.0221422 -0.287557 0.039884 -0.104518 0.29051 -0.100756 -0.118111 -0.0358115 -0.273768 -0.1944 -0.196822 -0.201864 -0.0713142 0.355795 -0.0718909 -0.167523 -0.190841 -0.106761 -0.308108 -0.266543 0.10346 -0.118655 0.328747 0.366571 -0.0523155 0.160896 -0.145186 0.0831875 0.168225 0.0195746 0.166813 0.140908 -0.0227883 -0.226919 -0.149564 0.0483276 0.00492182 -0.260591 -0.148015 -0.128868 -0.214964 -0.294455 0.236092 0.0114793 -0.244786 0.20454 -0.0159339 -0.0397186 0.0933346 0.114304 0.363505 -0.169829 0.269291 0.0754899 0.0366966 0.193429 0.342806 0.221671 -0.00797386 0.342252 -0.0113924 -0.0218361 0.32152 -0.177354 -0.145334 -0.0537759 0.356895 -0.174113 -0.120391 0.211835 -0.0801835 0.22346 -0.352978 -0.504571 -0.0932953 0.0204064 0.0254031 -0.0692867 0.0118454 -0.121001 0.230932 0.0051025 -0.169557 0.106343 -0.245041 -0.056513 -0.00900072 0.304614 0.0143987 -0.135671 -0.214776 -0.0821734 0.00951256 -0.0440664 -0.0717801 -0.057786 -0.168342 0.43216 0.0105538 -0.231812 -0.0324579 0.208797 -0.114212 -0.12719 0.3193 -0.0684734 0.192142 0.315745 -0.022621 0.359057 0.107682 0.353237 0.166031 0.251126 0.0444344 -0.0114376 -0.0103604 0.0910892 -0.0512884 0.0639751 0.128501 0.299872 1.16409e-05 -0.11955 -0.331641 -0.164045 -0.273407 0.192659 0.0874074 0.279698 0.0604238 -0.11784 0.108293 0.029754 0.0575001 0.182696 0.0766428 -0.16719 0.226469 -0.327962 -0.0888264 -0.0696537 -0.189164 -0.205597 0.0201159 -0.131241 -0.0931804 0.300093 -0.417834 -0.186314 0.0858385 0.120392 0.011398 -0.26818 0.161791 -0.0799443 -0.234233 -0.104877 -0.0451404 -0.101904 -0.398648 -0.189293 0.121366 0.185898 -0.228737 -0.230098 0.153062 -0.00334428 0.0380504 -0.277087 -0.059437 0.340348 0.27286 0.0363267 0.171624 -0.034074 -0.061872 0.0507886 -0.305911 -0.126122 0.0566267 -0.0223948 0.0403326 0.0863757 0.254559 -0.317527 0.246227 -0.136407 -0.237426 -0.242195 -0.14943 -0.0585402 -0.253596 -0.0563208 0.303144 -0.127672 -0.125587 0.0397436 -0.0497368 0.3967 -0.193196 0.531097 -0.265773 -0.142775 0.199345 0.00953868 -0.206198 -0.280333 0.00384883 -0.339827 -0.185457 0.175414 0.484 -0.137516 -0.245412 0.00342345 -0.540423 0.4203 -0.000396511 0.530581 0.630186 0.0476188 0.163618
媽媽 0.072216 0.0995156 -0.194824 -0.0133015 0.109333 0.117545 -0.0344268 -0.0124757 -0.157378 -0.00620913 0.075692 -0.137747 0.0161275 0.0268636 0.0155295 -0.145616 -0.304 0.0508867 0.116308 0.369622 0.323814 0.142009 -0.244941 0.226558 0.131865 -0.182338 -0.352578 -0.16189 0.207355 0.195 0.214202 0.29121 0.0394551 -0.0498793 -0.237592 -0.238681 -0.421489 -0.20792 0.0741166 0.0734041 0.162442 0.146625 0.0710865 -0.0752852 -0.106634 0.183652 -0.0782775 0.218898 0.0904788 -0.0726907 -0.087047 0.190567 0.221359 -0.483118 0.425048 -0.19006 0.409425 -0.142481 -0.127706 0.122416 -0.307449 -0.103648 0.13299 0.226078 0.135704 -0.161891 -0.0643325 0.0757368 -0.323035 0.0690169 -0.151378 0.100895 -0.034797 0.0174299 0.0617048 0.0524911 0.24026 0.58214 -0.238154 -0.00246299 0.0531044 0.42426 0.0684138 0.0826934 -0.238657 0.0398006 0.0355012 -0.148244 -0.238993 -0.189464 -0.113734 0.184512 -0.141155 -0.0811153 0.0903429 -0.0840762 0.0296787 0.00860587 -0.228835 -0.450687 0.0786319 -0.0805104 0.0843694 -0.109547 0.0770818 -0.0760075 -0.226574 -0.691525 -0.223844 0.162943 0.00354661 -0.0894797 -0.211211 0.104232 0.106582 -0.123257 -0.261471 -0.384208 -0.140917 -0.395542 0.34618 -0.0925333 -0.0499109 -0.290097 -0.0552354 -0.244776 0.116179 -0.0819709 0.0166607 -0.105437 0.105145 0.436481 -0.37007 -0.145514 0.213416 0.189769 0.310461 0.103381 -0.186165 -0.151168 -0.189035 -0.52434 0.118019 -0.114426 -0.260506 -0.0319193 0.201679 -0.168522 -0.0651858 -0.0303474 -0.0657337 -0.0247187 -0.136435 -0.0419103 0.0798507 -0.13315 -0.0369477 0.194078 -0.122809 -0.208204 0.000641503 0.0582522 0.267849 -0.014616 0.235772 -0.163467 -0.302379 0.136211 -0.0307802 0.197535 0.199782 0.430373 -0.10786 0.244413 0.152823 -0.0853646 -0.151716 -0.0107388 0.197619 -0.237019 -0.320147 0.0872145 0.0552391 0.275517 -0.113364 0.240779 0.0643957 -0.258976 0.0711116 0.0514381 -0.0844011 0.0180086 0.0337405 -0.286519 -0.305503 0.151081 -0.123495 -0.093534 0.0583863 0.434092 0.0209973 0.156302 -0.269106 -0.297969 -0.077631 0.292835 0.352806 -0.0312818 0.135187 0.0134415 -0.41354 -0.111569 -0.101209 -0.18957 0.245118 -0.0645516 -0.0869619 -0.0114928 -0.0418256 -0.151482 -0.0552286 0.293512 0.00550605 -0.247432 0.0859519 0.251489 0.403033 -0.19405 0.239213 -0.366598 -0.140044 0.424577 0.210859 0.0595991 -0.3251 -0.203127 0.256895 -0.230058 0.041397 -0.339145 -0.164525 -0.238913 1.27864e-05 -0.340996 -0.0967051 0.087693 0.228879 0.401065 -0.0578354 -0.186874
老師 0.00173076 0.262173 -0.0507209 0.114946 0.0336873 0.173201 -0.456304 -0.0754589 -0.143771 -0.0450621 -0.149015 -0.0320159 -0.0638802 -0.189367 -0.148618 0.0133025 -0.0614317 -0.0304199 -0.0126605 0.302003 -0.0630121 0.161644 0.0750033 -0.184768 0.178117 0.0413356 -0.0858882 -0.39188 -0.0860547 0.133359 0.106841 0.367794 -0.0813637 -0.0239606 -0.0199878 -0.0831945 -0.252936 -0.173406 -0.133526 -0.359076 -0.0826898 -0.343238 -0.0950306 -0.192143 0.109684 0.0949743 -0.139938 0.0624615 0.376509 -0.111704 -0.0851515 -0.0116982 0.234964 -0.277272 0.450719 0.53291 0.310819 -0.0447514 0.0164175 0.143713 -0.214567 -0.0119674 0.0789175 0.13861 -0.0181733 -0.415081 -0.249041 -0.115785 -0.123212 0.323051 0.062686 0.034461 0.297287 0.0894809 -0.203123 0.0875663 0.15001 0.236659 0.00400334 -0.0437637 -0.228593 0.367431 0.276069 0.254008 -0.0479814 0.0789592 -0.219297 -0.0264379 0.177475 0.089514 -0.122139 0.308072 -0.186873 0.0613303 -0.163676 -0.0866921 0.110472 0.0900204 -0.214348 -0.331691 -0.0286525 0.140554 0.283772 -0.442771 -0.0643006 -0.182041 -0.0575126 -0.278713 0.00722885 -0.13293 -0.00247815 -0.0226031 -0.345031 0.0563315 0.283668 -0.036779 -0.272072 -0.242959 0.309842 0.0473778 -0.0274769 -0.00993568 -0.0550662 -0.0137494 0.0556083 -0.298817 0.370988 0.157004 -0.202541 0.0581688 -0.194808 -0.0316315 -0.0357588 -0.123231 -0.0792302 0.284154 0.134583 0.0349081 -0.144653 0.0381417 0.110165 -0.310855 -0.0822857 -0.0661699 -0.302867 -0.117942 0.0455504 -0.434284 -0.190683 0.19967 0.135512 0.0246355 -0.0135063 -0.189436 0.1847 0.0395066 -0.0590487 0.0452018 0.159185 0.10788 0.325904 -0.0551763 0.25531 0.162449 0.0811736 -0.0109568 -0.45758 -0.0372697 0.225266 -0.0414118 0.412351 0.38527 0.217516 -0.0567552 0.351801 -0.227685 -0.0105743 -0.182019 0.323451 0.113026 -0.336411 -0.193157 0.179304 0.167188 0.0554795 -0.181076 -0.0819065 -0.272606 -0.170212 -0.120956 -0.195965 -0.183443 -0.222758 -0.228607 -0.111671 -0.0895557 0.061972 0.258498 0.0645222 0.286445 0.13871 -0.150112 -0.0956312 0.13781 0.321485 0.492247 -0.420792 -0.254913 0.071802 0.384741 -0.660454 -0.191585 -0.18639 -0.0854488 -0.249463 -0.0467541 -0.355911 0.0483017 -0.0120576 -0.170157 0.216298 0.0775773 -0.297008 0.192466 0.112707 0.197418 0.390536 -0.00915243 0.214372 -0.166107 -0.0397157 0.413105 0.134508 -0.171786 -0.0273723 -0.224655 0.0136021 0.121035 -0.306053 -0.197245 0.293347 -0.272325 0.1133 0.036659 -0.09496 -0.115277 0.244364 0.0646967 0.13339 0.0942355
男人 -0.00784384 0.269339 0.433245 -0.430826 -0.0935325 -0.0461113 -0.134083 -0.0599643 -0.0153091 0.371274 -0.0300604 0.0168991 0.00552144 0.00388151 -0.195352 0.124454 0.25837 0.152426 0.0160309 0.168395 0.093725 0.0768716 -0.046254 0.154896 -0.0946683 -0.248055 0.102502 0.210125 -0.00283961 -0.19938 -0.157477 0.243207 -0.0800768 -0.186379 -0.0514711 -0.0150154 0.104137 0.128105 -0.0398309 -0.121758 -0.0298442 -0.0442304 -0.132452 -0.143613 -0.0397712 0.45524 0.0871135 0.31917 -0.0499441 -0.0632719 0.415077 -0.145881 0.00984167 -0.0556852 0.0717654 0.255965 0.225764 -0.404269 0.0686258 0.0278774 -0.330361 -0.247574 0.193591 0.588438 -0.044841 -0.172796 -0.349223 0.183562 -0.124332 0.205701 -0.0174235 -0.132883 0.00158878 0.15842 -0.309368 -0.0392016 -0.0242327 -0.13463 -0.210948 0.273558 -0.204842 0.27946 0.487371 0.578706 0.163453 -0.336069 -0.235289 0.00204648 -0.138931 0.123127 -0.00368692 0.331485 0.0963374 -0.3482 -0.0371494 -0.238758 -0.213369 -0.0814138 0.528547 -0.19774 0.0231415 0.104801 0.0648964 -0.188556 0.219204 -0.15821 -0.015085 -0.153345 0.0712169 -0.226814 -0.0790708 -0.163421 -0.511106 -0.376281 0.517328 -0.306469 -0.0197529 -0.250645 0.0131438 -0.218345 0.0698037 -0.0234079 0.105061 -0.309476 0.185959 -0.034798 -0.383879 0.120532 -0.121484 -0.129051 0.157027 -0.0774545 -0.392714 0.0906417 0.145091 0.294567 0.0531603 0.0322398 -0.0602306 -0.0499008 0.00094992 -0.0387376 0.178314 -0.110728 -0.23415 -0.144142 0.158348 -0.0590353 -0.166271 -0.17026 0.0964961 -0.0777868 -0.176651 -0.109785 -0.243439 -0.459831 -0.0552257 -0.0245541 -0.0386692 0.0534823 0.080163 0.451631 -0.0194932 -0.271933 -0.206241 -0.0673995 0.0106617 -0.0620935 -0.361143 0.0184295 0.262736 0.419286 -0.0568482 0.121655 -0.0845949 -0.14144 0.137988 0.201275 0.183948 0.0614121 -0.241537 0.15548 0.0731751 0.0839683 0.0391306 0.243782 -0.357334 -0.408321 -0.197856 0.0727123 0.0998055 -0.116118 0.258784 -0.459392 -0.451739 0.215051 0.102531 -0.0417246 0.0649719 0.216318 0.362203 0.0375198 -0.262454 -0.138853 -0.462431 0.0684709 -0.131605 0.254908 -0.146351 0.18664 -0.199321 -0.118729 -0.202101 -0.22876 0.234314 0.15866 -0.0567969 0.110888 0.314323 -0.0247157 -0.281118 0.403902 0.118111 -0.0517038 -0.358526 0.020844 0.152881 -0.189245 0.351802 -0.0927781 -0.373921 0.289899 0.119172 -0.168453 -0.579274 -0.290175 -0.0866471 0.0363848 -0.00708369 -0.260411 0.0499523 0.0651199 0.305346 -0.304409 0.0639372 -0.0719952 0.068271 0.373747 0.0487161 0.123984
魚 -0.118703 0.15041 0.0903189 -0.222498 0.141983 -0.131236 0.645845 -0.0967338 -0.139108 -0.116654 -0.00115781 0.0120217 -0.0941555 -0.15489 -0.176137 -0.428636 -0.181306 0.0392762 -0.0734797 0.501962 0.0782064 -0.0270158 0.294641 0.182991 -0.0345615 0.410623 -0.268879 -0.126836 0.116456 -0.12192 -0.0595521 0.378034 -0.271534 -0.284712 -0.0616785 0.207598 -0.0490374 -0.0309935 -0.310318 -0.243456 0.178133 -0.0123547 0.0692911 -0.0471056 0.189485 0.161151 0.0468689 0.0159807 -0.178829 0.0621225 0.0626509 -0.307769 -0.176022 -0.195408 0.0129115 0.0897441 -0.00847072 -0.182345 0.41042 0.246715 0.00460635 -0.131988 0.116765 -0.227842 -0.00285725 0.149679 0.420314 -0.0792842 -0.486157 -0.0227058 -0.204602 -0.0650861 0.260262 -0.0827234 -0.0602463 -0.130912 0.371827 -0.146513 -0.323489 0.0987776 -0.218728 -0.377431 -0.185373 -0.0234939 -0.0363052 -0.340977 -0.427749 -0.213622 0.125743 -0.181865 -0.334044 0.319497 -0.177887 0.252578 0.0787111 0.151757 -0.0705413 0.362097 0.277261 -0.297356 -0.366896 -0.0546657 0.126389 0.0279121 -0.10131 -0.443161 -0.106128 0.0490967 -0.396381 -0.0755544 0.313417 -0.253983 -0.199002 0.312524 0.105653 -0.162015 -0.266939 0.247749 -0.081449 -0.292996 0.270036 0.0605992 0.217295 0.383565 0.177033 0.195691 0.0177328 0.254342 0.0918356 -0.379638 -0.21883 0.249784 -0.0676545 0.113268 0.0887484 -0.212801 0.220818 -0.134709 0.0336195 -0.0922966 0.533231 -0.156142 0.0100953 0.500378 -0.0199841 0.434688 -0.0985371 -0.189056 -0.577001 0.066511 0.233663 0.054961 -0.357328 0.0683128 -0.0553046 -0.160178 0.16456 -0.1533 -0.395557 0.16775 -0.195301 -0.0951671 0.273612 0.0483277 0.236439 0.501474 -0.233784 -0.153791 -0.328539 0.0396054 -0.252924 -0.0842439 -0.155805 0.130183 0.124008 -0.507128 -0.209327 0.278853 0.0440677 0.0880201 -0.20355 0.157292 0.067505 0.0115277 -0.205905 -0.184947 0.500228 -0.640585 0.0596676 0.12547 -0.010246 0.05003 -0.135031 -0.122557 0.196501 0.0247453 -0.189206 0.0266373 0.111531 0.0468608 0.283149 -0.0577428 -0.00792777 -0.138798 -0.05187 0.123608 0.0443123 0.31511 0.0934761 -0.0744398 -0.16295 -0.175376 0.275209 0.170588 -0.0543454 0.0873205 -0.0878935 -0.167089 -0.0459773 0.100801 0.368066 -0.0546896 0.024294 0.116309 0.106988 0.0366848 0.328812 0.146942 0.279851 -0.161999 -0.020389 -0.0109973 0.124558 -0.421185 -0.116469 -0.179481 0.0562462 0.0760039 0.138333 0.332615 0.417803 -0.146302 0.110159 -0.591955 0.448651 -0.166413 0.168713 0.357797 -0.0616605 -0.407221
手 -0.0112644 0.077729 0.232506 -0.105173 0.0320339 0.0760819 -0.0511365 -0.0819907 -0.129072 -0.0303745 -0.00264236 0.169918 0.223154 0.202308 -0.0918749 -0.323674 0.0171577 -0.0236932 -0.330388 0.410378 0.195096 -0.147555 0.389633 0.0125155 -0.24657 -0.0915174 -0.166524 0.295597 0.171967 0.112783 0.216103 0.216006 -0.28617 -0.220695 0.156904 0.159065 -0.389802 -0.248295 0.0158889 -0.00467962 -0.0250285 -0.0342809 -0.465482 0.151919 -0.236824 0.136649 -0.0470207 -0.0822168 0.0436399 0.163269 -0.337047 -0.280835 -0.195714 -0.0930134 0.409806 0.549346 0.0352053 -0.0673111 0.129088 0.145579 -0.152061 0.275553 0.436529 -0.145603 0.0970055 -0.0988446 0.175628 -0.330348 -0.378431 0.075963 0.249215 -0.133207 -0.342782 0.138852 0.218188 -0.14363 0.37484 0.130173 0.00046577 0.0791124 -0.325561 -0.0626136 0.104945 0.323297 0.174161 0.0871431 -0.0938395 -0.0512626 -0.1193 0.0428435 -0.147667 -0.167503 -0.211866 -0.384732 0.0793564 -0.046106 0.325004 0.00517993 -0.433148 0.01183 0.247021 0.00832182 -0.273848 0.0326759 -0.0401125 0.270912 0.221698 -0.112387 -0.169555 0.151182 -0.460807 0.0751706 -0.0715502 -0.0821098 0.3054 -0.372548 -0.0383002 0.192143 0.393388 -0.487992 0.180573 -9.92268e-05 0.218856 -0.689076 0.26349 0.225648 0.045296 -0.223425 0.274797 -0.608003 0.200045 0.111121 -0.164234 -0.0117624 0.0656619 -0.0358761 0.127284 0.239114 0.132176 0.0587483 0.227697 -0.31071 0.214638 -0.0793163 0.0673564 0.396415 0.15568 -0.126471 -0.0199668 0.138045 -0.0702137 0.0162822 -0.1462 0.284422 0.171577 0.158557 0.241609 0.068356 0.206949 -0.0167258 -0.0838144 0.00467441 0.193166 -0.237935 0.454455 -0.119667 -0.110312 0.0965783 0.0785666 0.212616 -0.0450503 -0.0970863 0.189149 0.0857955 0.0220885 -0.233214 -0.238411 -0.0462888 0.175904 0.0887971 -0.45441 0.144815 0.182264 0.14421 0.0363879 0.129298 -0.000101177 -0.130455 -0.508875 -0.256462 0.0976119 0.0115313 -0.0495148 -0.146525 0.435695 0.187203 -0.0617186 -0.115471 -0.0181098 0.0638305 0.252992 0.254578 0.032941 -0.182331 -0.264548 0.329234 -0.114633 -0.0856502 -0.0815956 -0.143885 -0.311257 -0.316983 -0.190779 0.0436112 0.251504 -0.197961 -0.0320336 -0.182489 0.145789 0.00233126 0.0386097 0.0647468 -0.0989068 0.368139 0.197611 -0.132034 0.374471 0.260357 0.0786038 -0.0280743 -0.105072 0.0089491 0.0295316 -0.0373867 -0.138782 0.478393 -0.0425553 0.0818345 0.299245 -0.10585 -0.169361 -0.113386 0.240587 -0.298231 -0.0603821 -0.189954 0.303563 0.454178 -0.0974169 -0.215272
